/* CNN Parameter Values - Generated by TensorFlow */
#ifndef CNN_PARAMS_H
#define CNN_PARAMS_H

/* Layer 1: Lambda (RGB to Grayscale) - No parameters */

/* Layer 2: Conv2D */
#define CONV0_OUT_CHANNELS 4
#define CONV0_IN_CHANNELS 1
#define CONV0_KERNEL_SIZE 3

/* Conv0 weights [filters][channels][height][width] */
static const float conv0_weights[CONV0_OUT_CHANNELS][CONV0_IN_CHANNELS][CONV0_KERNEL_SIZE][CONV0_KERNEL_SIZE] = {{ {{0.39847153f, -0.06765147f, 0.67237240f},
   {-0.36480862f, -0.48908696f, -0.35286552f},
   {0.19730532f, -0.19087808f, 0.20601946f}}},
 { {{0.19384567f, -0.53679991f, 0.35406369f},
   {0.47763222f, -0.80741549f, 0.28771031f},
   {0.42625991f, -0.47687674f, 0.04871407f}}},
 { {{-0.59219545f, -0.14971574f, 0.71704626f},
   {0.32942373f, -0.40629080f, -0.04640383f},
   {0.25299779f, 0.36387780f, -0.52115595f}}},
 { {{-0.33746460f, 0.06875765f, 0.50780171f},
   {-0.07009495f, 0.56860816f, 0.05012537f},
   {0.40306395f, 0.26388031f, 0.34951833f}}}};

/* Conv0 biases [filters] */
static const float conv0_biases[CONV0_OUT_CHANNELS] = {-0.02699625f, 0.00673093f, 0.02435025f, -0.25777406f};

/* Layer 3: MaxPooling2D - Pool size: (2, 2) */
#define POOL1_SIZE 2

/* Layer 4: Conv2D */
#define CONV1_OUT_CHANNELS 8
#define CONV1_IN_CHANNELS 4
#define CONV1_KERNEL_SIZE 3

/* Conv1 weights [filters][channels][height][width] */
static const float conv1_weights[CONV1_OUT_CHANNELS][CONV1_IN_CHANNELS][CONV1_KERNEL_SIZE][CONV1_KERNEL_SIZE] = {{ {{0.11610077f, 0.31988993f, -0.32946232f},
   {-0.27103102f, 0.50594771f, -0.12810402f},
   {0.10078397f, -0.21567361f, 1.31493556f}},
  {{0.14737962f, 0.27401456f, 0.65731680f},
   {0.35791597f, 0.64189911f, 0.09647059f},
   {-0.41525862f, -1.07391191f, -1.13560998f}},
  {{0.07714397f, -0.22334130f, -0.75380081f},
   {0.46905091f, 1.48080623f, -0.38818803f},
   {-0.12559494f, -0.25849986f, 0.46877071f}},
  {{-0.17333165f, 0.02145008f, 0.00931949f},
   {-0.41881880f, -0.82867187f, 0.13202275f},
   {0.45496023f, 0.05122570f, -0.07697079f}}},
 { {{0.05125762f, -0.24505773f, 0.01049679f},
   {0.47032589f, -0.77578175f, -0.36183959f},
   {-0.27757576f, -1.38264501f, -0.40691018f}},
  {{-0.09481495f, 0.37700912f, 0.29589522f},
   {1.11037958f, 0.52285087f, 0.43018368f},
   {0.25918919f, 0.55271745f, 0.45188540f}},
  {{-0.01519791f, -0.31882817f, -0.18202035f},
   {-1.17081904f, -0.18178460f, -0.02854713f},
   {-0.52010059f, -0.18265720f, -0.35145247f}},
  {{-0.21502256f, 0.19026798f, 0.05823463f},
   {-0.55555671f, 0.36377123f, 0.24256551f},
   {-0.16343582f, 0.17712729f, -0.21550363f}}},
 { {{0.54093152f, -0.10865456f, -0.58375186f},
   {0.44748625f, -0.06669239f, -0.49189574f},
   {-0.74933636f, 0.59516650f, -0.46867687f}},
  {{-0.27553716f, 0.89080179f, 0.47897688f},
   {-0.66883337f, 0.06315646f, 1.08766556f},
   {-0.53212905f, -1.18372548f, 0.65270358f}},
  {{-0.21547137f, 1.07759249f, 0.41874495f},
   {-0.30251351f, 0.45453614f, 1.62179971f},
   {-0.88466972f, -1.27821898f, -0.20568609f}},
  {{0.12824993f, -0.22923930f, -0.15195881f},
   {0.11326445f, 0.06868437f, -0.10359444f},
   {-0.00470197f, 0.00190486f, 0.08654007f}}},
 { {{0.48510680f, 0.83538306f, -0.30970815f},
   {-0.11764051f, 0.02130904f, -0.47745815f},
   {-0.33866569f, 0.42924598f, 0.02153894f}},
  {{0.29816499f, 0.07569973f, 0.41592875f},
   {-0.00901200f, -0.42314395f, 0.22356890f},
   {-1.34368324f, -1.27517569f, -0.20840153f}},
  {{0.01709964f, 0.07360499f, -0.02996004f},
   {-0.18500179f, -0.14981537f, -0.13470045f},
   {0.13965756f, 0.04969510f, -0.06051185f}},
  {{0.51332027f, 0.34514573f, 0.11546300f},
   {0.01673570f, 0.03156913f, 0.00129523f},
   {-0.48851877f, -0.56714553f, -0.12182850f}}},
 { {{0.60284740f, -0.00072001f, -0.62814593f},
   {-0.57675791f, -0.61560279f, 0.48307294f},
   {-0.63890845f, -0.47887516f, 0.38764468f}},
  {{-0.05544756f, -1.44581032f, -1.61083925f},
   {-2.93045545f, -3.95405030f, -3.03569317f},
   {-0.27370408f, -0.07480232f, 0.43155828f}},
  {{-2.40399742f, 0.21653743f, 1.00121236f},
   {-0.65055788f, -0.10204432f, 0.05420408f},
   {0.70125312f, -0.18922994f, 0.56534874f}},
  {{-0.48462963f, 0.26608914f, 0.11061278f},
   {0.08771452f, -0.14421786f, 0.08052958f},
   {0.25404465f, 0.05536588f, -0.24363200f}}},
 { {{1.19218087f, 0.36262026f, 0.14170983f},
   {-0.30312115f, 0.65373951f, 0.39983246f},
   {1.09958696f, 1.17916799f, 0.04478605f}},
  {{-0.41791669f, 0.15471992f, 0.17639987f},
   {-0.15104279f, 0.37452862f, -0.14763232f},
   {-0.58806700f, -0.01041629f, 0.06491007f}},
  {{-0.01215091f, -0.12467856f, 0.13327070f},
   {0.40757021f, -0.11655079f, -0.00508278f},
   {0.71013367f, -0.57589817f, -0.26696807f}},
  {{-0.28901199f, -0.21564555f, -0.10750067f},
   {0.16336581f, 0.37722665f, -0.04545736f},
   {0.24298310f, -0.11698446f, -0.09417906f}}},
 { {{-0.74296653f, -0.17782751f, 0.73615229f},
   {0.07880440f, -0.10574743f, -0.34255305f},
   {0.56407654f, 0.26398242f, -1.13949537f}},
  {{0.47176805f, -0.23193532f, -0.69200510f},
   {-0.52598619f, -0.13514102f, 0.08919279f},
   {-0.11855722f, -0.49391007f, -0.11845561f}},
  {{-0.43723613f, 0.10752594f, 0.18803473f},
   {-0.49057814f, 0.30277589f, 0.21574664f},
   {-0.25944728f, -0.58129364f, -0.28051022f}},
  {{0.60376459f, -0.20673995f, -0.37529695f},
   {0.44719493f, 0.08404582f, -0.64016032f},
   {0.10531767f, 0.21037222f, -0.26809403f}}},
 { {{-0.27480593f, -0.55138874f, 0.09568121f},
   {-1.52789271f, 0.38138995f, -0.44283357f},
   {0.28147611f, -0.86804861f, -0.71476597f}},
  {{-0.24173772f, -0.52624696f, 0.10939647f},
   {0.06211203f, -0.00973451f, -0.08434004f},
   {-0.16311891f, -0.06458336f, -0.29591194f}},
  {{0.24642938f, 1.00531518f, 0.10039421f},
   {1.33806539f, -0.14448807f, 0.84285349f},
   {0.26362661f, 0.93838930f, 0.73386687f}},
  {{0.14359890f, 0.34340099f, -0.31587175f},
   {0.24168101f, -0.34637150f, 0.06884816f},
   {-0.40025559f, -0.13768433f, 0.22337641f}}}};

/* Conv1 biases [filters] */
static const float conv1_biases[CONV1_OUT_CHANNELS] = {0.24329080f, 0.27736139f, -0.10412979f, 0.15175061f, 
 0.40859380f, -0.05852132f, 0.04565927f, 0.18458229f};

/* Layer 5: MaxPooling2D - Pool size: (2, 2) */
#define POOL3_SIZE 2

/* Layer 6: Flatten - No parameters */

/* Layer 7: Dense */
#define DENSE_INPUT_SIZE 512
#define DENSE_OUTPUT_SIZE 10

/* Dense weights [input_size][output_size] */
static const float dense_weights[DENSE_INPUT_SIZE][DENSE_OUTPUT_SIZE] = {{-0.04070539f, 0.27604297f, -0.34334326f, -0.17644623f, 0.25083682f, -0.44817176f, -0.26180029f, -0.09962236f, 0.77604127f, -0.06619156f},
 {0.20889421f, -0.16279042f, 0.15620990f, -0.31050777f, -0.07889797f, -0.41009605f, 0.44529167f, -0.08500032f, 0.37588346f, 0.06999747f},
 {-0.27597195f, 0.67433494f, -0.11269105f, 0.32385829f, -0.42459297f, 0.09558485f, -0.17093860f, -0.30458397f, -0.21373627f, 0.04286050f},
 {0.26519722f, 0.32779732f, -0.50970942f, -0.24094385f, -0.34498242f, -0.75508589f, -0.82989675f, 0.67194140f, 0.71643031f, -0.02148754f},
 {0.09460308f, -0.01122681f, 0.07203312f, -0.27740479f, -0.16315286f, -0.40159446f, -0.16264026f, -0.09619094f, 0.31028953f, 0.18567783f},
 {0.38889438f, -0.29061833f, -0.01542485f, -0.20983693f, 0.53697866f, -0.39623040f, 0.23234081f, -0.43115860f, 0.07231334f, -0.17191122f},
 {0.17524010f, -0.05248597f, -0.07672516f, 0.21047747f, -0.81517261f, 0.71063560f, -0.42995197f, -0.08030165f, -0.49604455f, 0.04931640f},
 {-0.16822466f, -0.11602800f, 0.70349091f, -0.17891836f, -0.28878158f, 0.02858731f, 0.04681013f, -0.15715753f, -0.32144970f, 0.24982600f},
 {-0.06075243f, -0.39256331f, -0.15197632f, 0.04752830f, 0.21975309f, -0.26117936f, 0.10121783f, 0.31504723f, -0.01660869f, -0.21182883f},
 {-0.38702706f, 0.30404601f, 0.19234756f, 0.02407252f, 0.19433619f, -0.10403348f, 0.70629448f, -0.28542322f, -1.01358831f, 0.11934179f},
 {0.00106702f, -0.18297663f, -0.18607010f, 0.19146420f, 0.01354205f, 0.18426727f, 0.09290336f, -0.16668591f, 0.12065832f, -0.29496297f},
 {-0.14620012f, -0.33773297f, 0.41392601f, -0.18424101f, 0.23897158f, -0.15508085f, -0.19378243f, 0.14406447f, -0.09090770f, 0.18229492f},
 {0.11011209f, -0.19647409f, -0.29745969f, 0.07286078f, -0.07583681f, -0.01015432f, 0.09105677f, -0.14123127f, 0.26321018f, 0.14021240f},
 {-0.28183460f, 0.05840113f, 0.05181687f, -0.17708375f, -0.14912194f, 0.29202348f, 0.03803432f, 0.05948805f, -0.21810937f, 0.11869679f},
 {-0.34104469f, 0.45794955f, -0.18938696f, 0.41892123f, -0.70975626f, -0.16986807f, -0.07334645f, 0.04017187f, -0.92724049f, 0.93088967f},
 {-0.46789110f, 0.14271966f, 0.53419131f, -0.08080418f, -0.16909882f, 0.04892849f, 0.13000546f, -0.56560296f, -0.36151737f, 0.19393681f},
 {-0.44048101f, -0.26904964f, -0.18918160f, 0.23217206f, 0.09002772f, 0.04577372f, 0.13756345f, 0.39669833f, -0.25265068f, -0.16268207f},
 {-0.28300399f, 0.54251158f, 0.10332241f, 0.14224726f, -0.22944976f, 0.03850413f, 0.00983220f, -0.52815896f, 0.64637882f, -0.09156866f},
 {0.49975830f, -0.08007130f, -0.41791758f, 0.22382079f, 0.17791340f, 0.03412788f, -0.71065462f, 0.21760565f, 0.15895924f, 0.01495817f},
 {-0.53237939f, 0.06765830f, 0.47030887f, 0.22553052f, -0.28218979f, 0.16255349f, 0.21090347f, -0.09144754f, -0.15492602f, -0.28470123f},
 {0.17117819f, -0.20159170f, 0.11331322f, -0.16741201f, -0.09727886f, 0.14561121f, -0.04103669f, 0.20630704f, 0.04316463f, -0.40972126f},
 {-0.21789075f, 0.08709888f, -0.44348776f, 0.21580018f, 0.37778908f, -0.18591894f, -0.10330833f, -0.06254782f, 0.24895342f, -0.10958879f},
 {-0.63177150f, 0.42789590f, 0.60336608f, 0.07003976f, -1.15526092f, 0.48001477f, 0.10431334f, -0.24099165f, -0.42558932f, 0.40956581f},
 {-0.03425499f, 0.23302554f, 0.07782086f, -0.03342241f, -0.07671218f, 0.17421800f, -0.03039250f, -0.11353868f, -0.25858435f, 0.02901533f},
 {-0.08607607f, -0.04846329f, -0.15492691f, -0.21201226f, -0.14993916f, 0.07647614f, 0.34694412f, 0.15096532f, -0.11614096f, 0.13773151f},
 {-0.01230897f, -0.09936398f, -0.24002585f, 0.24228165f, 0.20211832f, 0.04203907f, -0.05322524f, 0.11704588f, 0.20670502f, -0.34187442f},
 {0.01983730f, -0.39283079f, -0.34360653f, 0.21509859f, -0.01603395f, 0.24621473f, -0.05366579f, 0.30322930f, 0.12816887f, -0.36443925f},
 {0.02217932f, 0.45378032f, -0.10366964f, -0.25675717f, -1.01999056f, 0.06145871f, 0.43959671f, 0.02420960f, -0.25216526f, 0.09267139f},
 {0.16780122f, -0.46780968f, -0.13721599f, 0.23139724f, -0.15347028f, 0.12684593f, 0.16296397f, 0.13427690f, 0.10682526f, -0.12474262f},
 {-0.11977460f, -0.21274434f, 0.04597438f, 0.03617394f, 0.01789678f, 0.23354056f, -0.29798308f, 0.11550935f, -0.08892216f, -0.17841578f},
 {0.08310711f, 0.32653698f, 0.06106785f, 0.06427842f, -0.30268705f, 0.22577623f, -0.43033826f, -0.64107502f, -0.53001660f, 1.15690947f},
 {-0.65314287f, 0.33412617f, 0.03403349f, 0.10403980f, 0.03304622f, -0.27452812f, 0.57830608f, 0.03599634f, -0.50134981f, -0.07245155f},
 {-0.39531064f, 0.61813277f, -0.03864868f, -0.26278386f, -0.23807563f, -0.02587525f, -0.03150354f, 0.16026628f, -0.29764488f, 0.12929963f},
 {0.42682263f, -0.01864155f, -0.44381326f, -0.07808819f, -0.10559235f, -0.42456600f, 0.15609156f, 0.17496395f, 0.82741421f, -0.20124221f},
 {0.53899109f, -0.22985940f, -0.32756338f, 0.21975005f, -0.20227811f, 0.18803795f, -0.32701251f, 0.07701708f, 0.25409469f, -0.41877308f},
 {-0.10554203f, -0.24348369f, -0.08102344f, 0.07662500f, 0.38123676f, -0.50985295f, 0.39161509f, -0.26671684f, 0.26082164f, 0.13426153f},
 {0.12484919f, -0.66988295f, -0.15975603f, 0.14613324f, 0.11329693f, 0.56231380f, 0.07914624f, -0.00326566f, -0.15532310f, -0.28502297f},
 {0.15019765f, 0.08487574f, -0.06400785f, -0.18633120f, -0.10119523f, 0.20288193f, -0.36665794f, 0.25443101f, -0.15604022f, 0.28186306f},
 {-0.72949225f, 0.68051833f, -0.01075618f, 0.15974241f, -0.39782125f, -0.02809020f, 0.06279825f, -0.30168948f, -0.91943157f, 1.02858269f},
 {-0.36927533f, -0.25080565f, 0.35443845f, -0.35661906f, 0.29550681f, -0.49638006f, 0.42983708f, 0.40232784f, -0.09622186f, -0.31802118f},
 {-0.53011906f, -0.22675548f, -0.21310772f, 0.01407176f, -0.08920911f, 0.47168735f, 0.01968420f, 0.05303839f, -0.77747071f, 0.48469427f},
 {0.25738969f, 0.30415526f, -0.36743975f, 0.45212442f, 0.27897227f, -0.67651802f, 0.00448796f, -0.09631944f, 0.60273916f, -0.59416205f},
 {-0.46919674f, 0.33578905f, -0.02438998f, 0.08328778f, -0.26513469f, 0.07228128f, -0.06233576f, -0.08089253f, -0.03671268f, 0.00028301f},
 {0.09304126f, -0.20038182f, -0.14335014f, 0.08307721f, -0.09209282f, -0.15042934f, -0.06751914f, 0.50909626f, -0.16107807f, -0.08775667f},
 {0.08371750f, -0.08459958f, -0.14265035f, 0.13530953f, -0.03404997f, 0.00306487f, -0.17093289f, 0.27376130f, 0.21338280f, -0.29873982f},
 {-0.05201669f, -0.02596439f, -0.18981259f, -0.09500641f, 0.52201283f, -0.18729031f, -0.00701636f, -0.02799170f, 0.00740602f, 0.21494825f},
 {-0.28864068f, 0.25501904f, 0.17783329f, -0.00110964f, -0.57732266f, 0.39616781f, -0.24703149f, -0.53190869f, 0.34168863f, 0.35960793f},
 {0.06357642f, -0.43751410f, -0.13611324f, 0.22266011f, -0.10322831f, 0.06802014f, 0.14221297f, -0.08794384f, 0.04134637f, 0.34461299f},
 {-0.01747066f, -0.05968928f, 0.41423714f, -0.10855134f, 0.64679646f, -0.27447242f, -0.02472368f, -0.02963024f, 0.39334789f, -0.91602898f},
 {0.54541743f, -0.15413643f, -0.01979618f, 0.39690703f, 0.23226953f, -0.65469730f, -0.02818954f, -0.07500294f, 0.15574586f, -0.25141752f},
 {-0.25104880f, -0.02342250f, -0.00644719f, 0.09981779f, -0.25478145f, 0.33190912f, 0.30006972f, -0.03299580f, -0.37183529f, -0.25220579f},
 {0.07195646f, -0.21814492f, -0.25103036f, -0.04682390f, -0.26696691f, -0.33139533f, 0.35217687f, 0.14633577f, 0.30638996f, 0.02884599f},
 {0.78069144f, -0.60303843f, -0.01423649f, -0.03483555f, 0.13520105f, -0.41073909f, 0.03483753f, -0.30729955f, 0.13889904f, -0.06346485f},
 {-0.11872900f, 0.04972586f, -0.11262970f, 0.06144123f, 0.39372575f, -0.18007801f, -0.09051819f, -0.03866844f, -0.01238577f, -0.13765188f},
 {-0.03758485f, 0.34401992f, 0.12731750f, 0.39551863f, -0.96494389f, 0.11452212f, -0.45606327f, -0.57334507f, 0.15602536f, 0.67537260f},
 {-0.13425627f, -0.15832850f, -0.08577377f, 0.01022425f, 0.41897246f, -0.25613320f, 0.15180548f, -0.00353666f, -0.07255376f, 0.13829176f},
 {-1.28961504f, 0.04152928f, 0.26515666f, 0.12669301f, 1.12675548f, 0.27763906f, 0.45585805f, -0.97728503f, -0.88543266f, -0.56060386f},
 {0.54650128f, -0.26239318f, 0.24576661f, 0.03745367f, 0.20932046f, -0.10670016f, -0.23989773f, -0.35571024f, 0.22224985f, -0.45247638f},
 {0.14077215f, 0.01075520f, 0.08911105f, 0.14208794f, -0.57380646f, 0.14974128f, -0.12366951f, -0.38462713f, 0.37324834f, 0.14978568f},
 {-0.27685452f, 0.32299843f, -0.25231996f, -0.28709689f, 0.01246611f, 0.11437108f, -0.60897619f, 0.10404891f, 0.68973190f, 0.07102528f},
 {0.11857747f, -0.52778846f, 0.07584377f, -0.06573164f, 0.14782782f, -0.15596186f, -0.06007661f, 0.24550271f, 0.10023965f, 0.05481010f},
 {0.10169219f, 0.04335403f, 0.29996634f, -0.03614318f, -0.37021187f, -0.10290192f, 0.11108470f, -0.08255494f, -0.08318143f, 0.02942178f},
 {-0.35896686f, 0.03734602f, 0.24115829f, 0.23100074f, -0.21369959f, 0.21367994f, 0.55936551f, -0.41926944f, -0.23955204f, 0.08901347f},
 {-0.13010845f, 0.69438523f, 0.32376730f, -0.31089741f, -0.20357749f, -0.16230714f, -0.05622927f, -0.19921783f, -0.00946776f, 0.45583034f},
 {-0.33148554f, -0.11350845f, 0.02691534f, 0.19702308f, 0.56614476f, -0.60767096f, 0.02914974f, -0.71390873f, 0.30042893f, 0.40807718f},
 {-0.06855348f, 0.16029672f, -0.03989104f, -0.12644275f, 0.00620950f, -0.21826765f, 0.20539850f, 0.05747471f, 0.18976872f, -0.08801164f},
 {0.55893636f, -0.27465162f, 0.03334505f, -0.03322774f, 0.12797563f, 0.05158986f, -0.00312037f, -0.02656629f, 0.22240424f, -0.58065623f},
 {-0.37519354f, 0.15298390f, -0.07277845f, -0.45829010f, -0.13467501f, -0.36034852f, -0.34270498f, 0.43968979f, 0.51422477f, 0.17984471f},
 {-0.06445128f, -0.17398348f, -0.07134257f, -0.13839005f, 0.20116147f, -0.35685000f, 0.39807737f, -0.24567156f, 0.22464481f, -0.10995935f},
 {-0.02641053f, 0.44844529f, -0.32532319f, 0.32569310f, -0.02512179f, 0.18911086f, -0.23442054f, 0.20061874f, -0.45133761f, -0.06620748f},
 {0.34340659f, -0.53384578f, 0.24675123f, -0.08449501f, 0.00041587f, -0.06337089f, -0.00591071f, 0.07962053f, -0.19896340f, 0.16573621f},
 {-0.47910944f, -0.19625662f, -0.33927247f, -0.31200093f, 0.32088450f, 0.40190688f, 0.27778047f, 0.16461204f, -0.06062653f, -0.17607178f},
 {-0.20683867f, 0.19281271f, -0.53422827f, 0.44827035f, 0.11280646f, -0.19244340f, -0.13660619f, 0.08767822f, -0.13705717f, -0.05587269f},
 {-0.70857126f, -0.23134880f, 0.01399657f, 0.34415829f, 0.15705772f, 0.52771425f, -0.08177094f, 0.00558303f, -0.46881828f, -0.15053891f},
 {0.75571769f, -0.50783700f, -0.23636620f, 0.14771312f, 0.54077899f, -0.29266348f, -0.26993284f, 0.06710394f, 0.18599530f, -0.55414164f},
 {0.47509545f, -0.48722249f, -0.31636465f, 0.07400825f, 0.02017310f, 0.07146331f, -0.05685848f, -0.00677988f, 0.09159496f, -0.09714074f},
 {-0.02229514f, -0.28563783f, 0.08966735f, -0.14850995f, -0.41792464f, 0.33513564f, 0.51564455f, -0.21442644f, -0.00929351f, 0.35617888f},
 {0.04116481f, 0.16671830f, 0.26136324f, -0.09245703f, -0.42947274f, 0.03963063f, 0.10325814f, 0.24487136f, -0.38621578f, 0.02536337f},
 {-0.04143326f, -0.44131896f, 0.56849760f, 0.10407495f, 0.16641009f, 0.58546072f, -0.30039752f, -0.20150539f, -0.84907514f, 0.12007669f},
 {-0.22622088f, -0.66129571f, 0.21062607f, -0.12099414f, 0.19510405f, 0.52975285f, 0.29335541f, -0.04380934f, -0.34029871f, -0.32806093f},
 {-0.09708548f, 0.35310829f, -0.12721555f, 0.07010078f, -0.48238790f, -0.21179526f, -0.46257982f, 0.77058762f, 0.00343732f, 0.13206494f},
 {-0.32925868f, 0.44690129f, -0.21633779f, -0.12709230f, -0.33510840f, 0.22261730f, 0.23343585f, -0.19378133f, 0.05577573f, 0.30824119f},
 {0.54839385f, -0.83715802f, -0.09970378f, 0.04401485f, 0.32300976f, -0.12902395f, -0.20204970f, 0.44339022f, 0.01184800f, -0.27224272f},
 {-0.19901118f, -0.29319713f, 0.09586202f, -0.09242827f, -0.07824572f, 0.03792498f, -0.18144110f, 0.55158591f, -0.19972406f, -0.05000809f},
 {0.44463179f, -0.00082237f, 0.28707469f, -0.25487787f, -0.58035618f, 0.26766548f, -0.31472483f, 0.06063576f, -0.19016089f, -0.26065966f},
 {-0.09435394f, 0.26044717f, 0.19946827f, -0.13506036f, -0.26051089f, 0.21281663f, -0.07931010f, -0.40659106f, 0.05143400f, 0.18222690f},
 {-0.14737734f, 0.45104164f, 0.18721710f, 0.61550891f, -0.76951522f, 0.43244803f, -0.94850850f, -0.20090869f, -0.35328335f, 0.28897789f},
 {-0.43342030f, 0.10472335f, 0.08839863f, -0.24359661f, 0.04087925f, 0.15236624f, 0.17780836f, 0.07225018f, -0.19347611f, -0.12510195f},
 {0.30986714f, 0.05043237f, -0.39385486f, -0.15860273f, -0.14045510f, 0.00018875f, 0.27445319f, -0.01571340f, 0.07160415f, -0.21299230f},
 {0.24637480f, 0.16751325f, -0.32877386f, 0.01435049f, 0.09246799f, -0.09361652f, -0.42289013f, -0.19065735f, 0.66132194f, 0.17503673f},
 {0.08241291f, -0.47472489f, -0.06379251f, 0.20106740f, 0.20264572f, -0.15071993f, -0.46258801f, 0.56596470f, -0.15475000f, -0.25941175f},
 {0.09490101f, -0.03957071f, 0.23875096f, 0.00832562f, -0.26818389f, -0.10889719f, 0.35913947f, -0.00932744f, -0.22245447f, -0.27634296f},
 {0.06914786f, 0.24552308f, 0.15826082f, -0.06883071f, -0.51178873f, 0.46106282f, -0.27600989f, -0.17098796f, 0.16626121f, -0.19754136f},
 {-0.19122319f, 0.23521936f, -0.17047596f, 0.19036473f, -0.54493648f, -0.00540842f, 0.07762112f, -0.23015536f, -0.00716278f, 0.37101546f},
 {-0.00512085f, 0.22830510f, 0.07603187f, 0.00331153f, -0.84220415f, 0.57500893f, -0.09886260f, -0.22769172f, -0.33264086f, 0.14724702f},
 {-0.23863131f, -0.43273568f, 0.35214299f, -0.03742288f, -0.23194304f, 0.14209394f, 0.14124191f, 0.19403160f, 0.14436530f, -0.47357139f},
 {-0.06487982f, 0.24264017f, -0.11739891f, 0.26858351f, -0.29975355f, 0.09970144f, -0.15337874f, -0.14810070f, -0.16655867f, -0.20710510f},
 {0.24695569f, -0.07290151f, -0.14994135f, 0.15546368f, 0.42004126f, -0.31710085f, -0.68441862f, 0.27421913f, 0.08515367f, -0.46714893f},
 {-0.08477280f, -0.27024543f, -0.05921170f, 0.02682111f, 0.17653176f, 0.08541922f, -0.15642241f, 0.07790840f, 0.17941920f, 0.01110514f},
 {-0.25021285f, 0.34714854f, 0.09493886f, -0.05536808f, -0.17157379f, -0.37314817f, -0.00275541f, 0.01354794f, -0.04203803f, 0.02049653f},
 {0.31344521f, -0.49623260f, 0.14037141f, -0.04894065f, -0.41660628f, 0.10651225f, 0.02857696f, 0.18652616f, 0.15441465f, 0.02014570f},
 {-0.15955579f, 0.45629176f, -0.11615253f, -0.16132864f, -0.20026977f, -0.10845676f, -0.30313319f, 0.20374858f, -0.09602173f, 0.46119031f},
 {-0.17955396f, -0.23550059f, 0.15839231f, 0.16759005f, -0.69149160f, 0.40165302f, -0.45873001f, 0.17037509f, -0.12979621f, -0.13426147f},
 {0.04001990f, -0.47632396f, -0.05817847f, -0.13223149f, 0.05522640f, -0.09152496f, 0.33277711f, 0.35703620f, -0.40436766f, -0.20661911f},
 {-0.34670338f, -0.24369770f, 0.15156950f, 0.22088242f, -0.04033837f, 0.27707767f, -0.23363313f, 0.06409884f, -0.20700555f, -0.26504654f},
 {0.22377454f, 0.17059343f, -0.40622541f, 0.13337198f, 0.19752650f, -0.10688604f, -0.31769937f, 0.08239527f, 0.04685171f, 0.47866222f},
 {-0.20798695f, 0.14733975f, 0.11225659f, -0.15756789f, -0.19109346f, 0.32638928f, 0.19046970f, -0.16811542f, -0.12689894f, -0.20998931f},
 {0.65901524f, -0.19743033f, -0.54419219f, -0.02074184f, -0.05683844f, -0.09268171f, 0.23573175f, 0.08772904f, -0.47399467f, 0.27165636f},
 {0.06897648f, -0.57314068f, -0.15293562f, 0.17775726f, -0.20340392f, -0.01127225f, -0.16440877f, 0.28901240f, 0.33250239f, -0.37084702f},
 {0.16243318f, 0.10955555f, -0.30018619f, 0.13800454f, -0.53296399f, 0.18199965f, 0.03183607f, 0.05585989f, 0.15264803f, 0.11602188f},
 {-0.02315781f, -0.37633327f, 0.39344656f, 0.33112410f, -0.48895881f, 0.36149636f, -0.28046435f, 0.54871702f, -1.12463570f, 0.11073855f},
 {0.12089615f, -0.16485204f, -0.05870618f, -0.03554270f, 0.41954842f, -0.13468269f, 0.35478055f, 0.44345540f, -0.53969133f, -0.32025546f},
 {-0.40459469f, 0.07972802f, -0.02580974f, -0.02984562f, -0.21920566f, 0.14944127f, -0.05135120f, -0.13738236f, 0.69380677f, -0.25351465f},
 {0.57228017f, -0.18417244f, -0.10244720f, 0.32500622f, 0.64198858f, -0.42794955f, -0.29798195f, -0.44104892f, 0.20683381f, 0.09317026f},
 {-0.33891851f, -0.42705566f, 0.08418564f, -0.07059754f, -0.52242076f, 0.51140720f, 0.62357271f, 0.28488910f, -0.29181266f, -0.02355961f},
 {-0.06295077f, 0.05363472f, -0.21015358f, -0.09591529f, 0.34681618f, 0.03824016f, -0.44341695f, 0.02676238f, 0.30392385f, -0.22099476f},
 {0.79203665f, -0.76120764f, 0.21910508f, 0.05097768f, -0.42816180f, -0.15221144f, -0.13259947f, -0.31600428f, 0.23425235f, -0.06587858f},
 {0.23511285f, 0.01282743f, 0.22061668f, 0.16006780f, -0.23067877f, -0.33897847f, -0.30177021f, -0.20980273f, 0.40959600f, 0.03723765f},
 {-0.05502103f, -0.04476484f, 0.11639982f, 0.26474619f, 0.16786581f, 0.26965961f, -0.29779783f, -0.29964948f, -0.76994240f, 0.25860679f},
 {0.29202107f, -0.57368493f, 0.09434196f, 0.21223454f, 0.44042543f, 0.03235170f, -0.20779967f, -0.04124231f, -0.14741305f, -0.42141670f},
 {-0.39052072f, 0.43712866f, -0.40349618f, -0.24869733f, 0.37208688f, -0.43227071f, 0.36771089f, 0.10586361f, -0.34473160f, 0.33930060f},
 {0.31480330f, 0.16335937f, 0.17076033f, 0.42103803f, 0.72871858f, -0.33870453f, -0.43436602f, -0.31969854f, -0.26456538f, -0.33401766f},
 {-0.20391445f, -0.47596207f, 0.14872943f, 0.22249761f, -0.53995943f, 0.37324631f, 0.37276307f, 0.24493366f, -0.14423843f, 0.04563715f},
 {-0.17342828f, -0.19427904f, -0.21022539f, -0.19265394f, 0.46510187f, -0.11281526f, -0.51156181f, 0.34791562f, 0.17005032f, 0.15396471f},
 {0.54125285f, -0.30492342f, -0.31426772f, -0.08013231f, -0.36557138f, -0.05116716f, 0.25796160f, -0.18924356f, 0.22426344f, 0.05283962f},
 {0.27954409f, 0.09826802f, -0.02315912f, 0.21625994f, 0.29121649f, 0.07897381f, -0.58753401f, 0.16729586f, -0.45550978f, -0.21420774f},
 {-0.17897658f, 0.17762531f, 0.00754369f, 0.13110939f, -0.09302200f, -0.08326405f, -0.20367418f, 0.21999824f, -0.41253370f, 0.28152072f},
 {0.09956297f, 0.20693265f, -0.25776845f, 0.32781920f, 0.06030100f, 0.06786464f, -0.36033151f, -0.31084454f, 0.11388690f, -0.09790176f},
 {0.16923086f, -0.44665271f, -0.05401883f, -0.10545412f, 0.35190889f, 0.00477660f, 0.06366198f, -0.17009665f, 0.45197812f, -0.21486560f},
 {-0.09533823f, 0.09683188f, -0.31670418f, -0.01768278f, 0.20278648f, -0.19572754f, 0.12515926f, -0.16742325f, 0.20785549f, 0.04150586f},
 {0.15531379f, 0.22111756f, -0.28957599f, 0.24593031f, 0.34775487f, -0.05733537f, -0.08700248f, -0.78481555f, -0.02426592f, 0.08993267f},
 {-0.67910099f, -0.06359931f, -0.50164527f, 0.15767129f, 0.25883624f, 0.23721442f, -0.62379026f, 0.58448106f, 0.17429282f, 0.29794407f},
 {-0.17986144f, -0.00560803f, 0.23716287f, 0.19788758f, 0.22395571f, 0.07482059f, 0.15534821f, -0.43085584f, 0.05597344f, -0.33394220f},
 {0.25306803f, -0.21590538f, 0.09340099f, -0.02070759f, -0.00057633f, -0.10428483f, 0.06831333f, 0.44998363f, 0.03584190f, -0.46448034f},
 {0.15611903f, -0.65733123f, 0.40905064f, 0.41369912f, -0.17584759f, 0.11385044f, -0.31515279f, 0.16330276f, -0.62617153f, -0.06030470f},
 {-0.41964149f, 0.78307825f, -0.12091630f, -0.14319110f, -0.28255987f, -0.02217653f, 0.12901932f, 0.31075734f, -0.11994088f, -0.01262055f},
 {0.21654791f, -0.38384005f, 0.04159516f, -0.05933718f, 0.10263398f, -0.19060045f, 0.09588066f, -0.20976491f, 0.04642370f, 0.08219094f},
 {-0.65571290f, -0.27398449f, -0.08286060f, 0.18967408f, -0.56054693f, 0.63359511f, -0.13571106f, 0.57834554f, -0.39807993f, 0.26115441f},
 {0.39090586f, -0.00134977f, 0.01201357f, -0.03335468f, 0.28061366f, -0.07553095f, -0.36411715f, -0.22758096f, -0.17426595f, -0.01957756f},
 {0.09910373f, 0.24214558f, -0.40495861f, -0.34698001f, -0.02298328f, -0.31244189f, -0.38035131f, 0.09362791f, 0.34410632f, 0.40094438f},
 {0.07269569f, 0.02204910f, 0.18155035f, 0.12874737f, -0.53217518f, 0.08858273f, 0.19554351f, -0.04448423f, 0.02302271f, 0.00156329f},
 {-0.14934862f, -0.23141842f, -0.18071717f, 0.27008909f, -0.24538785f, -0.03573236f, 0.00015661f, 0.20550892f, -0.04551731f, 0.17696919f},
 {0.09263667f, 0.16596118f, 0.11966944f, 0.22197571f, -0.73017800f, 0.00521197f, 0.43339771f, -0.06485537f, -0.84308404f, 0.38191429f},
 {-0.06921373f, 0.03642199f, -0.26558572f, -0.04522761f, -0.38936517f, 0.17306460f, 0.21990468f, 0.92659956f, -0.33694440f, -0.57667315f},
 {-0.18729067f, 0.09845843f, -0.39257196f, -0.01456513f, -0.13712262f, 0.03649701f, 0.01477893f, 0.09093824f, -0.14119349f, 0.15700831f},
 {-0.75696135f, 0.04511677f, 0.45814437f, 0.10499648f, -0.37156880f, 0.44927409f, -0.36748847f, -0.02284352f, -0.00553466f, 0.20384119f},
 {0.28312239f, -0.34405899f, -0.12279437f, 0.02693617f, 0.23945075f, 0.19027941f, 0.20616141f, -0.10453305f, -0.25204197f, -0.34053260f},
 {-0.30582324f, -0.32769567f, 0.00337038f, 0.13325183f, 0.40267041f, -0.13599269f, -0.12589386f, 0.39836019f, -0.27164230f, -0.06673629f},
 {0.13730665f, -0.33511156f, 0.05289208f, -0.11433676f, -0.08117346f, 0.14319862f, 0.02380780f, 0.13284938f, -0.21684626f, -0.04707041f},
 {-0.17528130f, 0.24514237f, 0.27019861f, -0.20834526f, -0.16767174f, -0.02233890f, 0.11680319f, -0.35595509f, -0.12941816f, 0.27062708f},
 {0.12836671f, -0.02337054f, 0.34064624f, 0.19179860f, -0.67414004f, 0.01878377f, -0.31499040f, 0.41487563f, -0.43792033f, 0.32969016f},
 {-0.25837591f, 0.05181322f, -0.02599431f, -0.02543548f, -0.03650813f, 0.19557813f, 0.48542556f, 0.29788151f, -0.64525163f, -0.64985067f},
 {0.06741764f, 0.03862333f, 0.14348881f, -0.10962109f, 0.33825240f, 0.12029799f, -0.80499452f, 0.15748072f, -0.34667107f, -0.44434255f},
 {-0.28826860f, -0.03739225f, 0.17509931f, 0.39241570f, -0.07467925f, 0.51053482f, -0.69909197f, -0.68334550f, 0.43257189f, 0.54818380f},
 {0.02750232f, -0.12704337f, -0.27257499f, 0.04730449f, 0.15404485f, 0.09729204f, -0.26223293f, -0.02856584f, 0.02348333f, 0.19783454f},
 {0.13243295f, 0.16639991f, 0.56724298f, -0.29236817f, -0.09180046f, -0.14937423f, 0.28639090f, -0.03263552f, -0.26009718f, -0.32247058f},
 {0.32700762f, -0.04515608f, 0.24086563f, -0.04100099f, -0.00672825f, 0.14771676f, -0.19914412f, -0.07252364f, -0.38511613f, 0.07656771f},
 {-0.25754791f, 0.38391900f, -0.17895336f, -0.15911163f, -0.43468410f, 0.21627489f, -0.14104682f, -0.32732788f, 0.31744173f, 0.40303475f},
 {0.21854122f, -0.20929152f, 0.43718380f, 0.13983236f, -0.36128929f, 0.13673788f, -0.26666909f, 0.53730762f, -0.52817923f, -0.16368183f},
 {-0.26625761f, -0.05385059f, 0.21784289f, 0.01420002f, 0.29199851f, 0.12496154f, -0.13131864f, 0.06639303f, -0.08077010f, -0.46620381f},
 {0.15693028f, 0.09350327f, 0.23882978f, 0.11530368f, -0.16369984f, 0.22783068f, -1.01155221f, -0.00970550f, -0.15124683f, -0.04897756f},
 {-0.18921494f, -0.63935697f, 0.01897418f, 0.22474013f, -0.14764374f, 0.46648285f, -1.12669086f, 0.07840504f, 0.34820476f, 0.80215561f},
 {0.03691136f, -0.07057665f, -0.07376150f, -0.22801036f, 0.11723964f, 0.15907237f, -0.15816310f, -0.18278146f, 0.27430004f, -0.00222051f},
 {-0.09976745f, 0.39073211f, 0.22867124f, 0.10612793f, 0.10880445f, -0.10712191f, -0.34898657f, -0.22338742f, -0.09894014f, -0.00504331f},
 {0.57774162f, -0.20767525f, -0.04276445f, -0.22146814f, 0.08985134f, 0.36909804f, -0.37964568f, 0.34910139f, -0.30017602f, -0.26885834f},
 {-0.10174040f, 0.25509605f, -0.09338078f, -0.10290696f, -0.26134965f, 0.06230122f, -0.07172349f, -0.34836155f, 0.50718510f, 0.11717385f},
 {-0.29319197f, -0.43836999f, 0.45437989f, 0.13630778f, -1.00686932f, 0.34034494f, -0.81569999f, 0.97317076f, -0.44612777f, 0.20231572f},
 {-0.11547955f, -0.07663383f, 0.23165719f, -0.06055321f, 0.08492642f, 0.13460954f, 0.16791421f, 0.42130983f, -0.22367461f, -0.62068278f},
 {-0.00731518f, 0.28220096f, 0.01316329f, 0.08963693f, 0.09042046f, 0.22610115f, -0.01513643f, -0.57057720f, -0.52379048f, -0.18451798f},
 {0.40884155f, -0.16990256f, -0.00451027f, 0.04778756f, 0.12145206f, -0.30045494f, -0.42279109f, -0.07051364f, 0.37983096f, 0.31139243f},
 {-0.48270002f, 0.15383847f, 0.24101026f, -0.03591047f, -0.30934513f, 0.18387856f, -0.00002191f, 0.06907810f, -0.08511765f, 0.13781868f},
 {0.29379776f, 0.03494812f, -0.33945844f, -0.13080683f, 0.01643411f, -0.26305550f, -0.21373677f, 0.32888553f, 0.00692548f, 0.31873411f},
 {0.49745381f, -0.29396942f, 0.25797260f, -0.09868716f, 0.43575317f, -0.17649938f, -0.85693377f, 0.50526828f, 0.09109968f, -0.63683140f},
 {0.05332227f, 0.11611000f, -0.18944649f, -0.33014983f, 0.21584781f, -0.07695916f, -0.01380548f, -0.38473129f, 0.23990093f, 0.34775621f},
 {-0.04353220f, -0.43557495f, 0.34933704f, -0.04188190f, -0.41704702f, 0.27865258f, -0.03899645f, 0.32931304f, -0.90292078f, 0.21041431f},
 {-0.02055379f, 0.02241604f, 0.10574281f, -0.19360042f, 0.16752577f, -0.16528413f, 0.26337641f, 0.21121103f, -0.45074871f, -0.38826022f},
 {-0.21682522f, 0.31765983f, -0.11302546f, 0.11073887f, -0.10457455f, 0.15362892f, -0.16420558f, 0.14500131f, -0.37799844f, -0.21105464f},
 {0.46550345f, 0.03272406f, -0.15054877f, -0.01277904f, 0.18525454f, 0.23404655f, -0.19777563f, -0.17561202f, -0.08057912f, -0.38409647f},
 {-0.59742588f, -0.08279639f, 0.29371616f, -0.03160441f, -0.55342227f, 0.27433807f, 0.09228793f, 0.43307564f, -0.02250802f, -0.22043650f},
 {0.12782167f, 0.32003048f, -0.52256298f, -0.21565469f, 0.32616401f, -0.39429387f, -0.47133017f, 0.02024365f, 0.45102587f, -0.04307447f},
 {0.71851522f, -0.37159866f, -0.08737565f, -0.10603972f, 0.06061296f, -0.61316013f, -0.15324248f, -0.58307475f, 0.27125269f, 0.06360628f},
 {0.46166292f, -0.30417293f, 0.26680076f, 0.02224468f, -0.11153390f, -0.32748049f, -0.20758106f, 0.01889333f, 0.13417143f, 0.05874463f},
 {0.28921446f, -0.70708793f, 0.14819396f, 0.21793701f, -0.40487674f, 0.60760254f, -0.02362136f, 0.25842953f, -1.33150971f, 0.27026996f},
 {0.30363929f, 0.12230990f, -0.41547874f, -0.16639219f, 0.18856446f, 0.01553175f, 0.93574715f, -0.09189328f, -0.26600993f, -0.56900555f},
 {-0.19651674f, 0.18213210f, -0.28134429f, -0.00647254f, -0.01304299f, -0.47327939f, 0.16659042f, 0.28946927f, 0.52191502f, -0.20449249f},
 {0.70626462f, -0.38817850f, 0.31197616f, -0.40432757f, 0.40454119f, -0.21233721f, -0.12362113f, -1.03834760f, 0.43071836f, 0.70672369f},
 {-0.16970083f, 0.12024894f, 0.00742496f, 0.27717265f, -0.38836128f, 0.09919033f, -0.22630318f, 0.23253632f, -0.49763650f, -0.01121499f},
 {-0.33206058f, 0.07684078f, -0.43241635f, -0.67261106f, 0.17782903f, -0.00501490f, -0.76738751f, 0.45861593f, 0.45706069f, 0.46383694f},
 {0.07282908f, -0.10287730f, 0.07054368f, 0.05578151f, 0.01369081f, -0.41622072f, 0.01442959f, -0.41786805f, 0.75732481f, -0.34953803f},
 {0.32067195f, -0.48440868f, -0.13793550f, 0.03661212f, 0.38388753f, -0.07700432f, 0.25072104f, 0.39324245f, -0.32822800f, -0.34432244f},
 {-0.21751553f, 0.09686955f, 0.13280948f, 0.08228410f, -0.18651862f, 0.34049025f, 0.10515521f, 0.04171493f, -0.50124359f, -0.04558889f},
 {0.12386508f, 0.40934300f, -0.18526278f, -0.17419291f, -0.01194514f, -0.27131188f, 0.01476765f, -0.30844253f, 0.16109866f, 0.48521632f},
 {-0.30645454f, -0.63399231f, 0.07598936f, 0.12040009f, 0.23294801f, 0.07155317f, 0.38697442f, -0.75053895f, 0.66448057f, 0.03611179f},
 {-0.20851555f, 0.35837620f, -0.09268212f, -0.20115204f, -0.16118544f, -0.19547878f, 0.19192050f, -0.37880480f, 0.43701324f, 0.00477063f},
 {0.56079215f, -0.18190107f, 0.12497459f, -0.21658246f, 0.10093167f, -0.07835114f, -0.29751387f, -0.11733069f, 0.16800907f, -0.17342171f},
 {-0.54154295f, 0.16852228f, -0.48312908f, 0.03976011f, 0.12277045f, -0.21009009f, -0.48340461f, 0.33312687f, 0.46592015f, 0.45903504f},
 {-0.21203081f, -0.13558796f, 0.19010788f, -0.24715151f, 0.05599720f, -0.03089233f, -0.07995893f, -0.01418882f, 0.70065945f, -0.40044159f},
 {0.28236559f, -0.02857118f, 0.09000381f, 0.26037765f, -0.41715845f, 0.04330075f, -0.22911668f, 0.39029807f, -0.03124140f, -0.05045354f},
 {0.04799054f, -0.18027198f, 0.27365789f, 0.11725367f, 0.07948727f, 0.48912150f, -0.03181413f, -0.46425635f, -0.21886764f, -0.13114862f},
 {-0.26753163f, 0.68892062f, -0.41958266f, -0.10532331f, -0.29539281f, -0.06231130f, 0.30449882f, 0.17200492f, -0.38276380f, 0.31419653f},
 {0.56773639f, -0.12486169f, -0.20641665f, -0.27565235f, 0.14517902f, -0.16070655f, -0.08056492f, -0.49011233f, 0.55087036f, 0.27853352f},
 {-0.57470995f, -0.56993538f, 0.36780885f, 0.17810552f, -0.29899967f, 0.18076311f, -0.36059570f, 0.87680018f, -0.42779124f, 0.27227360f},
 {0.53851354f, -0.25326768f, -0.05600482f, -0.30080330f, 0.12619126f, 0.04584820f, 0.11137504f, -0.19064681f, 0.18938887f, -0.33542401f},
 {0.22657256f, 0.05151625f, -0.05203378f, -0.14313745f, 0.03770028f, -0.12798357f, -0.20092824f, 0.44708475f, -0.06329349f, -0.00786705f},
 {-0.12059783f, 0.46704215f, -0.08044612f, -0.09531851f, 0.10328948f, 0.00248138f, -0.32066745f, -0.10488682f, 0.21250817f, -0.33460584f},
 {0.42639926f, 0.26048735f, -0.15096152f, -0.38566768f, -0.13296522f, -0.40774652f, -0.25607207f, 0.13399789f, -0.37718427f, 0.57905847f},
 {-0.23083755f, -0.27278757f, 0.08994922f, 0.25773865f, -0.26419660f, 0.32166955f, 0.23002335f, 0.18591177f, -0.59629035f, 0.13536727f},
 {-0.14552988f, -0.36704203f, -0.10711781f, 0.27150533f, -0.03818505f, 0.17931199f, 0.50648969f, 0.48734811f, -0.22623110f, -0.63650221f},
 {-0.08811775f, 0.06185687f, -0.08065955f, 0.15340577f, 0.10602031f, 0.00311461f, -0.06064533f, -0.00900017f, -0.18322064f, -0.26889169f},
 {-0.56003219f, -1.02752602f, 0.04186137f, 0.35854748f, -0.51486200f, 0.39088136f, -0.47025818f, 0.96817172f, 0.28288832f, 0.26135826f},
 {0.32704431f, -0.18888585f, -0.14708838f, -0.13616011f, -0.02727069f, 0.00575164f, -0.09798562f, 0.13767157f, 0.18147837f, -0.00483017f},
 {-0.00537034f, 0.33337259f, -0.45310447f, -0.02250378f, 0.09537747f, -0.21882242f, -0.24772853f, -0.05011158f, 0.10954221f, -0.15820886f},
 {0.14132543f, 0.45540795f, 0.24853531f, -0.11429293f, -0.30352327f, -0.16285224f, -0.28102171f, 0.26610342f, 0.04477992f, -0.30649668f},
 {0.15989494f, 0.04524394f, -0.36840597f, 0.08951060f, -0.20750545f, -0.43572256f, 0.17007411f, -0.22935988f, 0.23732433f, 0.21918313f},
 {-0.18156710f, -0.63733929f, 0.26219949f, 0.08640097f, 0.16046058f, 0.22056958f, 0.03528487f, 0.33406445f, -0.60746151f, -0.16305798f},
 {-0.02138060f, -0.09716402f, -0.06431963f, 0.02944202f, -0.26570326f, 0.00735036f, 0.42071909f, 0.15016425f, 0.14746453f, -0.32693428f},
 {0.13096613f, 0.18724930f, 0.15609682f, 0.19934592f, 0.43933553f, 0.08179712f, -1.00920630f, -0.14009564f, -0.19573745f, -0.10467377f},
 {-0.12432034f, -0.81714422f, -0.03236964f, 0.22473894f, -0.53261560f, 0.57252306f, -0.55432457f, 0.46636805f, 0.08041381f, 0.54894209f},
 {-0.01232383f, -0.20423959f, -0.12753470f, -0.05682354f, -0.11971780f, 0.06881315f, -0.22253080f, 0.41304591f, -0.04546879f, 0.42444310f},
 {0.09592585f, 0.00898998f, 0.69673628f, -0.54856539f, 0.45305857f, -0.22139648f, -0.56184596f, 0.39891982f, -0.16392374f, -0.49327058f},
 {0.43113518f, 0.64397693f, 0.10660960f, -0.20233086f, -0.08551974f, 0.16572385f, -0.40017053f, 0.31127766f, -0.46735665f, -0.40229335f},
 {0.32683128f, 0.44187763f, -0.34453890f, -0.15912478f, -0.08412968f, 0.22355491f, -0.11644564f, -0.79877245f, 0.38181865f, 0.17315860f},
 {0.09321273f, -0.18569869f, 0.50848418f, 0.09204172f, -0.24907489f, 0.28351143f, -0.57784891f, 0.26185068f, -0.70627004f, -0.40375173f},
 {-0.34611955f, -0.36237019f, 0.56536222f, 0.22715311f, 0.00898015f, 0.58129036f, -0.03909118f, 0.19861296f, -0.30932951f, -0.98653340f},
 {-0.13342519f, -0.19209638f, 0.29233533f, 0.23078704f, 0.21232617f, 0.63930124f, -0.83116347f, 0.16851734f, -0.60089689f, -0.49980882f},
 {-0.34927160f, -1.40605474f, -0.17053711f, 0.28445476f, 0.01887047f, 0.48251501f, -0.96789730f, 0.24195324f, 0.43189988f, 0.77231342f},
 {-0.14666730f, -0.00756708f, 0.11971393f, 0.03828752f, -0.06617410f, 0.12744793f, -0.25225925f, -0.32910615f, -0.03700412f, 0.21676460f},
 {0.13223428f, 0.00208631f, 0.18589653f, -0.10222683f, 0.14955209f, -0.50225633f, -0.88824826f, 0.36975956f, 0.21201420f, -0.24061143f},
 {0.64337850f, 0.34877908f, -0.03052887f, -0.27315322f, 0.55109960f, 0.04988591f, -0.92124927f, 0.37730348f, -0.44272411f, -0.09590298f},
 {0.06787117f, 0.08188113f, -0.12590031f, -0.23276144f, 0.09865756f, 0.12262543f, -0.49498871f, -0.50881732f, 0.32105505f, 0.35339516f},
 {-0.16272730f, -0.44926554f, 0.19069910f, 0.32421753f, -0.08237179f, 0.17055753f, -0.18613793f, 0.20684776f, -0.47038504f, 0.03449959f},
 {-0.13336089f, -0.09259743f, 0.10134033f, 0.17476487f, -0.22136000f, 0.24061400f, 0.40806174f, 0.18708979f, -0.05527798f, -0.88680136f},
 {0.03092813f, 0.02577109f, 0.05241672f, 0.01178175f, 0.13051720f, 0.30637723f, -0.13984649f, -0.07189665f, -0.35896152f, -0.32846850f},
 {-0.32223549f, -0.91665447f, 0.05795767f, 0.10693618f, -0.11095594f, 0.51170057f, -0.25025076f, 0.61875027f, 0.03830349f, 0.17603408f},
 {-0.33293369f, 0.19097401f, 0.10188102f, -0.15810497f, -0.18928877f, 0.18512553f, -0.42810616f, 0.38442817f, -0.27706501f, 0.08113793f},
 {0.65790892f, 0.18847236f, -0.22520813f, -0.40680534f, 0.24527360f, -0.50277877f, -0.63373989f, 0.08048066f, 0.41054076f, -0.46468791f},
 {0.78472692f, 0.28200665f, 0.32300094f, -0.25530201f, 0.68177825f, -0.44548640f, -0.98047674f, -0.44663024f, -0.15671460f, -0.14615549f},
 {0.24854249f, 0.52337903f, -0.29262650f, -0.00787097f, -0.06230241f, -0.30641660f, -0.04760250f, -0.58005577f, 0.09648366f, 0.16314566f},
 {0.09934728f, -0.46880502f, 0.04873875f, 0.39104998f, -0.31946063f, 0.26228797f, 0.28847975f, 0.12941058f, -0.48637313f, -0.36232597f},
 {-0.04241458f, -0.01604268f, -0.06261749f, 0.00988559f, 0.06153052f, 0.07589953f, 0.50190932f, 0.43164659f, -0.16031756f, -0.95119280f},
 {-0.22058010f, -0.44303593f, 0.10291312f, 0.28911752f, 0.00874035f, 0.09964588f, 0.42527264f, 0.16793635f, -0.44720295f, -0.37384886f},
 {0.29141083f, -0.45918489f, 0.10816796f, -0.07625692f, -0.22851831f, 0.25382897f, -0.12013002f, -0.04536677f, -0.07440037f, 0.14160722f},
 {-0.00283740f, 0.00036876f, 0.01936501f, 0.10737481f, -0.35391501f, 0.21445481f, -0.36782548f, 0.56299281f, -0.25514910f, -0.06243232f},
 {0.17717689f, 0.48392212f, -0.68139136f, -0.55455405f, -0.00704366f, -0.50942802f, -0.49885398f, -0.18107797f, 0.43281621f, 0.35014948f},
 {0.67809355f, -0.27829850f, 0.56775647f, -0.44153860f, 0.49802575f, -0.30145571f, -0.12243193f, -0.78374100f, 0.00485132f, -0.45020360f},
 {0.43036583f, -0.06320886f, -0.16810283f, -0.25500801f, -0.02833481f, -0.32188550f, 0.07999520f, -0.07813375f, 0.06975891f, 0.07785832f},
 {-0.33302823f, -0.59752548f, 0.14627957f, 0.55557758f, -0.07057349f, 0.27884862f, 0.13674137f, 0.18579394f, -0.59784561f, -0.40758944f},
 {0.28086612f, 0.01434005f, -0.07643910f, -0.15802504f, 0.12857580f, -0.10258622f, 0.77769256f, -0.81570715f, 0.23055208f, -0.52750552f},
 {-0.28601274f, -0.07257400f, -0.03467703f, 0.05409587f, -0.25562963f, -0.46859431f, 0.66554356f, -0.19797410f, 0.25711441f, -0.04950967f},
 {0.21550038f, 0.09821879f, -0.01375196f, 0.23782571f, -0.15436517f, -0.05886336f, -0.17074902f, -0.00012453f, 0.03581160f, 0.13917395f},
 {0.07445076f, 0.34292534f, 0.14284030f, 0.09967145f, -0.74761158f, 0.20256247f, -0.01735064f, 0.16518508f, -0.45573652f, 0.07810944f},
 {-0.02020212f, -0.27568728f, -0.36965418f, -0.08165174f, 0.04998728f, -0.08631134f, -0.22320549f, 0.30785984f, 0.33787417f, 0.21268666f},
 {0.06477536f, -0.25953621f, 0.13868622f, -0.28352416f, -0.07136175f, -0.05298182f, 0.48576900f, -0.06859742f, 0.57459569f, -0.78836566f},
 {0.31491300f, -0.36056459f, 0.19094247f, 0.05894783f, -0.01898043f, -0.04131721f, -0.40353155f, 0.28220865f, -0.10748390f, 0.05932163f},
 {-0.21819219f, 0.22059122f, 0.00679153f, 0.29799658f, -0.23441949f, 0.06171043f, 0.27319625f, 0.09697616f, -0.16442928f, -0.20977078f},
 {-0.02769763f, 0.57017869f, -0.31252518f, -0.28972033f, -0.10700080f, -0.06661356f, 0.14487538f, -0.53382462f, 0.25011533f, 0.55026752f},
 {0.01623840f, -0.69642842f, 0.08357957f, 0.29914579f, 0.08885443f, 0.16606630f, 0.09217046f, -0.04576218f, 0.49722403f, -0.18600188f},
 {-0.24824506f, 0.47827953f, -0.26379427f, -0.11196753f, -0.03788549f, -0.33022162f, 0.15823884f, -0.08180620f, 0.30791152f, 0.11790524f},
 {0.51012039f, 0.49156493f, -0.13404049f, -0.45725206f, -0.13024710f, 0.03622767f, -0.49183056f, -0.71606386f, 0.55697131f, -0.01615871f},
 {-0.45615101f, -0.36552277f, -0.57609540f, 0.00170244f, 0.32042429f, 0.24888913f, -0.35540372f, 1.35073030f, -0.04385971f, 0.07875881f},
 {0.16647156f, -0.26608577f, 0.26666045f, 0.10669805f, 0.13030836f, 0.13463983f, -0.31783581f, 0.17906976f, -0.14920461f, -0.47214252f},
 {0.24526329f, -0.19732025f, 0.23652427f, -0.41362232f, -0.18014060f, -0.12500557f, -0.24864893f, 0.28904781f, 0.04580948f, 0.27449253f},
 {-0.51690900f, -0.29286605f, -0.07414626f, 0.76830786f, -0.26686648f, 0.10754029f, 0.30920383f, 0.14641167f, -0.34042251f, -0.31185806f},
 {-0.28865162f, 0.42094406f, -0.32931477f, 0.26300421f, -0.16455357f, -0.11573785f, 0.18802537f, -0.85614896f, -0.04047612f, 0.38723993f},
 {-0.12584379f, -0.18031713f, 0.31163627f, -0.01349539f, 0.04548185f, -0.02465839f, 0.18359517f, -0.12708837f, -0.00914625f, -0.11245595f},
 {-0.43889681f, -0.38169324f, -0.61139071f, -0.07056014f, -0.15989771f, 0.42611569f, 0.04183402f, 0.90673572f, -0.26582095f, 0.11246184f},
 {0.13458163f, 0.53284967f, 0.04568109f, 0.02773660f, -0.22322391f, -0.03838335f, 0.12049816f, -0.27342850f, 0.08781260f, -0.30116412f},
 {0.38192591f, -0.15784927f, -0.35746533f, -0.01530592f, 0.29452300f, -0.32015505f, -0.81910467f, -0.45504045f, 0.70708519f, 0.09108748f},
 {0.29178947f, 0.15092762f, 0.33970964f, -0.25743470f, 0.03210055f, -0.03866746f, -0.22866032f, 0.07342768f, 0.03236522f, -0.27059728f},
 {0.10993937f, 0.34244525f, -0.15442301f, -0.24449442f, -0.45358565f, -0.33844230f, -0.28066543f, 0.17171752f, -0.04139996f, 0.30241913f},
 {-0.68918353f, -0.68313318f, 0.07235504f, 0.05440077f, 0.10138550f, 0.28767759f, -0.07833800f, 0.41293088f, 0.09937967f, 0.12845960f},
 {-0.22147685f, -0.03722665f, 0.05257119f, 0.37274358f, 0.07808205f, -0.03696320f, 0.64326489f, -0.14879467f, -0.51865131f, -0.76456690f},
 {-0.29271808f, -0.25841385f, 0.09273189f, 0.03946493f, 0.17313510f, 0.20199811f, 0.03340482f, -0.04021083f, 0.09226894f, 0.08970179f},
 {-0.15095095f, -0.62217939f, -0.24349827f, -0.25251651f, 0.05436550f, 0.25822288f, 0.01468305f, 0.54923964f, 0.03432300f, 0.38327625f},
 {0.03417319f, 0.17523015f, 0.03802922f, -0.27033007f, -0.03948128f, 0.08451052f, -0.00680795f, 0.08178848f, 0.06959356f, -0.13095096f},
 {-0.15531938f, 0.55502403f, 0.25625384f, -0.21077266f, 0.25681251f, -0.18283030f, -0.28519648f, 0.02377268f, 0.10706720f, -0.25188988f},
 {0.31642422f, 0.50280148f, 0.32525906f, -0.13091692f, 0.33951852f, -0.04463028f, -0.50220478f, -0.52277726f, 0.07405733f, -0.29474151f},
 {0.39524141f, 0.03050523f, -0.22555730f, -0.26699808f, -0.05575552f, -0.43869963f, -0.38923338f, -0.11179953f, 0.29851374f, 0.34810328f},
 {-0.42514506f, -1.08008587f, 0.36457166f, 0.69778603f, -0.22425127f, 0.39280972f, 0.41350180f, 0.26144803f, -0.62590539f, -0.63928300f},
 {0.22282466f, -0.13615771f, 0.57656777f, -0.04653683f, 0.07141657f, -0.18695229f, 0.39331043f, 0.56029719f, -0.51205486f, -0.53898644f},
 {0.17153433f, 0.03019522f, -0.01190326f, -0.07318400f, -0.32005242f, 0.38700289f, -0.51382637f, 0.20894638f, -0.11820628f, -0.10576451f},
 {-0.33449516f, -0.00904722f, -0.09621257f, 0.08942749f, 0.41776437f, -0.06335182f, -0.83288383f, 0.10072230f, -0.07306371f, 0.54325908f},
 {0.07189514f, 0.10200664f, 0.17275164f, 0.00522452f, 0.03351157f, -0.13196698f, -0.12181100f, 0.29518443f, -0.27821845f, -0.03617470f},
 {0.16871911f, 0.04570090f, 0.37811881f, -0.11329629f, 0.28965747f, -0.73841703f, 0.06565356f, 0.40522274f, -0.01405037f, -0.44860834f},
 {0.48338035f, 0.94902521f, 0.13219675f, -0.41531318f, -0.50152087f, -0.06171503f, -0.09812311f, -0.51165634f, -0.17846850f, 0.40891299f},
 {0.18567185f, 0.00915821f, -0.31341755f, -0.41181365f, -0.25658831f, -0.06816532f, -0.00908060f, -0.14545335f, 0.62038511f, 0.30336186f},
 {-0.34979016f, -0.21390952f, 0.24283794f, 0.06613909f, 0.12841445f, 0.66044837f, -0.41566721f, -0.22133125f, -0.40477094f, -0.38990596f},
 {0.04414705f, 0.33614063f, 0.30352455f, 0.01447423f, 0.10874882f, -0.16674690f, 0.21407835f, -0.22238670f, -0.61217487f, -0.21391974f},
 {0.22612822f, -0.40725875f, -0.21530592f, 0.15993275f, -0.33388904f, 0.23815304f, -0.52728057f, 0.28146014f, -0.21401176f, 0.18610379f},
 {0.24149197f, -0.35607842f, -0.11469714f, 0.16469197f, 0.13131084f, 0.15836312f, -0.70461941f, 0.31413731f, 0.40881342f, 0.17435183f},
 {0.07194398f, 0.54227966f, 0.03317018f, -0.18122299f, -0.06655317f, -0.08118880f, -0.54780442f, 0.19133781f, 0.03848587f, 0.23825599f},
 {0.21266809f, -0.07194937f, 0.23178764f, -0.32763219f, -0.14968601f, -0.25652489f, -0.56903100f, 0.59784943f, 0.20301530f, -0.39446586f},
 {0.03306612f, 0.06888435f, 0.43190774f, -0.43551257f, 0.05857848f, -0.02123494f, -0.52705187f, 0.19272174f, 0.03512571f, -0.35814607f},
 {0.16695283f, 0.36966786f, -0.19474034f, -0.20621569f, -0.45879027f, 0.19224529f, -0.19262126f, -0.09293788f, 0.36369053f, 0.08755334f},
 {-0.49856713f, -0.33098176f, 0.21719471f, 0.42425555f, 0.20669112f, 0.66548705f, -0.10163876f, -0.28790808f, -0.89654857f, -0.24699740f},
 {0.18070190f, 0.14971755f, 0.22621782f, 0.31872612f, -0.26641467f, 0.02768877f, 0.17949221f, -0.32003048f, -0.09317952f, -0.54765463f},
 {-0.00899164f, -0.43976042f, 0.34657317f, -0.23595944f, -0.60858548f, 0.17698562f, -0.04980510f, 0.25403106f, -0.12095401f, 0.26723528f},
 {-0.22916281f, -0.89897937f, -0.16717869f, -0.05778273f, 0.19910331f, 0.13860346f, 0.01258690f, 0.55677783f, 0.00225884f, 0.17015511f},
 {0.00877987f, -0.02064026f, 0.18352689f, -0.14934634f, -0.05759821f, 0.03477542f, -0.49447808f, 0.56329334f, -0.33528596f, -0.04614687f},
 {0.31814802f, 0.03546813f, -0.03039165f, -0.25301090f, 0.32514825f, -0.36669341f, -0.39061922f, 0.04526596f, 0.26733860f, -0.31554863f},
 {-0.06975489f, 0.38114083f, 0.54948658f, -0.29690641f, 0.32766178f, -0.03121351f, -0.88505524f, -0.00714039f, -0.03557125f, -0.51265961f},
 {0.25657776f, -0.39677760f, 0.00764345f, -0.36325330f, 0.09589426f, -0.40924606f, 0.18949278f, -0.35222429f, 0.57659900f, 0.24099575f},
 {0.07639422f, -0.34750420f, 0.11378943f, 0.43226653f, -0.37926060f, 0.35629311f, -0.01116750f, 0.07217511f, -0.27474889f, -0.34806800f},
 {-0.08399802f, -0.21812366f, 0.30483118f, 0.09989287f, -0.08963230f, -0.06987165f, 0.38433617f, 0.19574894f, -0.05583113f, -0.43935856f},
 {-0.84804738f, 0.00275935f, 0.07669089f, 0.20622471f, -0.13624702f, -0.08741809f, 0.25182232f, 0.09700926f, -0.16814457f, 0.31952342f},
 {-0.69098455f, -0.12713097f, -0.40408507f, 0.09488597f, 0.07336835f, 0.22497365f, 0.45562154f, -0.29692054f, 0.32538840f, 0.20589775f},
 {0.40666714f, -0.14140958f, -0.25838140f, -0.09688094f, -0.08686166f, 0.08277477f, -0.25406596f, 0.59577054f, -0.32577711f, -0.13766670f},
 {0.44693026f, -0.02164925f, -0.60217518f, -0.22493489f, 0.12255894f, -0.47650343f, -0.01525925f, -0.45055929f, 0.58425599f, -0.10486978f},
 {0.40268862f, 0.15930967f, 0.40144113f, 0.09663026f, -0.05051137f, -0.39908561f, -0.18416017f, -0.52996212f, 0.08599050f, -0.39356458f},
 {0.20009351f, -0.00239548f, 0.11663645f, -0.00131687f, 0.01310903f, -0.50885719f, -0.20652851f, -0.27399102f, 0.23839240f, 0.27376860f},
 {-0.23212004f, -0.00529272f, 0.10641536f, 0.26338333f, -0.01586637f, 0.57758844f, -0.23881395f, -0.48553580f, 0.19397834f, -0.19814070f},
 {0.27108821f, 0.37364739f, -0.07211017f, 0.08282935f, -0.23172723f, -0.15159205f, 0.40057930f, -0.44628593f, 0.40497792f, -0.53417695f},
 {-0.48903477f, 0.13140239f, 0.05814617f, 0.12851800f, -0.16353896f, -0.23662956f, 0.26978591f, -0.13484789f, -0.01390209f, 0.13869330f},
 {-0.53417677f, 0.39941362f, -0.20882858f, -0.02804195f, -0.24281095f, -0.31700051f, -0.03439041f, -0.05059650f, 0.36733916f, 0.50847185f},
 {-0.06680079f, 0.35062352f, -0.11461464f, 0.01278994f, -0.37145332f, 0.10847913f, -0.19587314f, 0.13033928f, 0.10096271f, 0.00369110f},
 {-0.22692864f, -0.20515275f, -0.24028270f, -0.30572847f, 0.41241333f, 0.39021203f, -0.53321278f, 0.19804704f, -0.15898441f, 0.37054962f},
 {0.49620429f, -0.91952944f, 0.49711314f, -0.08790355f, -0.17432372f, 0.16161565f, -0.28010273f, 0.14992544f, 0.46555081f, -1.00795734f},
 {0.53861195f, 0.11043579f, 0.04134858f, -0.24156737f, -0.60949177f, -0.18176845f, -0.17234853f, 0.03011009f, 0.22045694f, 0.13194592f},
 {-0.16562755f, -0.00629462f, -0.35651550f, -0.06172742f, 0.10366420f, 0.13948257f, 0.01301608f, -0.11511817f, 0.10954915f, 0.07189263f},
 {-0.10603379f, 0.57913190f, -0.19272700f, 0.01912917f, -0.13700461f, -0.14657876f, 0.42474580f, -0.70454365f, -0.04737484f, 0.51354927f},
 {0.33306614f, -0.09720027f, -0.20050380f, 0.30209592f, -0.46142000f, -0.14346032f, 0.69624823f, -0.47544384f, 0.09442420f, -0.20169239f},
 {-0.13248579f, 0.15308762f, -0.22616109f, -0.09849898f, 0.05979028f, -0.17557031f, 0.12692070f, 0.45823413f, -0.12247036f, 0.15844898f},
 {-0.09116231f, 0.57495838f, -0.30773443f, -0.11803235f, 0.01245046f, -0.42161268f, -0.00986871f, -0.31779590f, 0.24398068f, 0.04682736f},
 {-0.30446169f, -0.56787503f, -0.04810159f, -0.13324434f, 0.85306638f, -0.45430782f, -0.63749176f, 0.86025739f, 0.05189343f, 0.33384758f},
 {0.49743435f, -0.34047225f, 0.01227227f, 0.05676234f, 0.21076478f, 0.03326327f, -0.05867367f, 0.14024821f, -0.24580732f, -0.52939796f},
 {0.29172593f, -0.39131695f, -0.06357387f, 0.11175339f, -0.16066594f, 0.32248878f, -0.14491908f, 0.38819331f, -0.43741924f, 0.03258328f},
 {0.01094031f, -0.43069491f, -0.21367823f, 0.10806549f, -0.12307339f, 0.57386249f, -0.03332006f, -0.15512255f, 0.18187840f, -0.07408436f},
 {-0.09721581f, 0.59879798f, -0.74628055f, -0.17300196f, 0.01445588f, 0.09375870f, -0.03004105f, -0.31643078f, 0.15088165f, 0.47154704f},
 {-0.50207901f, 0.37258905f, 0.21742830f, 0.11292341f, -0.26956004f, 0.18376519f, 0.05807862f, -0.38392979f, 0.04320987f, 0.06550787f},
 {-0.03785840f, -0.72985905f, -0.44077808f, -0.13873924f, 0.34255534f, 0.41625309f, -0.06814043f, 0.85285360f, -0.81127179f, -0.18653084f},
 {0.25341117f, 0.60520113f, -0.27299452f, -0.04328811f, -0.15752910f, -0.24684665f, 0.00609645f, -0.21524101f, 0.19293305f, -0.17887770f},
 {0.43959981f, 0.03845435f, -0.41509363f, 0.00878556f, 0.14216158f, 0.49429864f, -0.52204478f, -0.17027065f, 0.07208080f, -0.20994379f},
 {0.03975213f, -0.28735688f, 0.63842458f, 0.02078828f, 0.06264282f, 0.04945583f, -0.19293408f, 0.46534425f, -0.52629775f, -0.74211240f},
 {0.54501903f, 0.50705522f, 0.05474531f, -0.47023907f, -0.13180645f, -0.65607429f, -0.43095791f, -0.04850964f, 0.08824919f, 0.39718920f},
 {-0.75154209f, -0.46867669f, -0.07114031f, 0.01257720f, -0.40772223f, 0.49023035f, 0.40259215f, -0.21050681f, 0.44480681f, 0.11346988f},
 {0.09036851f, -0.29384729f, 0.31132486f, -0.35185093f, 0.06698476f, 0.10361184f, 0.07012112f, 0.40342399f, -0.15699390f, -0.16487044f},
 {-0.23018704f, 0.46000791f, -0.39294150f, -0.02068081f, -0.03661491f, 0.06419931f, 0.20384352f, -0.59395754f, -0.62313545f, 0.46090838f},
 {0.23654677f, -0.20896088f, -0.36230847f, 0.09511813f, 0.55774820f, 0.11194237f, -0.05225198f, 0.80853862f, -1.26392937f, -0.27324700f},
 {-0.00097247f, 0.29426655f, -0.00526220f, -0.07001439f, -0.02439189f, -0.08869994f, -0.01682145f, 0.14948133f, 0.00197816f, -0.34625253f},
 {-0.08244852f, 0.18632227f, -0.36340192f, -0.14988904f, 0.04355856f, -0.32399058f, -0.26906177f, 0.20614612f, 0.41082397f, 0.01184257f},
 {0.34479687f, 0.15262906f, 0.14396946f, 0.22141407f, 0.08320609f, -0.49715790f, -0.38986856f, -0.02378695f, 0.09894640f, -0.56794804f},
 {-0.02817926f, 0.26499793f, 0.17392051f, 0.01047352f, -0.23482066f, -0.45568210f, 0.07101535f, -0.21248174f, -0.10058283f, 0.48006609f},
 {-0.14012821f, -0.44212547f, -0.01202914f, 0.27235439f, 0.11716429f, 0.23311050f, -0.12435669f, -0.22091241f, 0.31115714f, 0.00204967f},
 {-0.19433250f, -0.53065884f, 0.20269066f, -0.03474601f, 0.14834121f, -0.02813402f, -0.09511395f, 0.47928822f, -0.08977006f, -0.12031622f},
 {-0.12602741f, 0.43977723f, -0.28963092f, -0.11088371f, -0.35917974f, -0.31985912f, 0.14554469f, -0.37404299f, -0.01209769f, 0.62981373f},
 {0.08927850f, 0.13446599f, -0.03808300f, -0.24723527f, 0.42939201f, -0.08667260f, 0.04440387f, 0.73560423f, -1.23423982f, -0.01914799f},
 {0.14824310f, 0.09137974f, -0.17519377f, -0.12171835f, 0.05823955f, -0.26534113f, 0.05212358f, 0.55073637f, -0.38345900f, -0.23650239f},
 {0.39467582f, -0.11539323f, 0.18385071f, 0.14773963f, -0.10587757f, -0.10389320f, -0.30523562f, 0.16697037f, 0.05407058f, -0.29988390f},
 {0.51862311f, 0.23346706f, -0.02716099f, 0.09104694f, -0.37312138f, -0.14640233f, -0.45068324f, 0.06522408f, 0.47480717f, -0.44633466f},
 {0.27671358f, -0.09549835f, 0.02467389f, -0.33329931f, -0.35987690f, -0.27672774f, 0.21282010f, 0.39210343f, 0.03758730f, 0.23403025f},
 {-0.42663917f, -0.14697802f, 0.36925328f, 0.31228510f, 0.38063270f, 0.27009028f, -0.33668685f, -0.41052526f, -0.07820211f, -0.15606923f},
 {0.43576145f, -0.20436531f, 0.20832895f, -0.04371984f, 0.05176917f, 0.12857077f, 0.05901886f, -0.23089789f, -0.62804890f, 0.09036771f},
 {0.06558450f, 0.15297046f, -0.31041130f, -0.06450081f, -0.03936996f, -0.11446709f, -0.09597659f, -0.23430008f, 0.14469247f, 0.34961712f},
 {-0.13634074f, 0.21520025f, 0.04854680f, -0.12541848f, 0.66778964f, 0.12714037f, 0.03377369f, 0.52004230f, -1.08189571f, -0.32364056f},
 {0.09414814f, 0.16948700f, 0.22127573f, -0.32020244f, 0.22897877f, -0.15715086f, -0.40529558f, 0.71292925f, -0.48604241f, -0.18207993f},
 {0.09128869f, -0.17401356f, 0.32156023f, -0.13858724f, 0.38946897f, -0.29533648f, -0.24083956f, 0.49091673f, 0.42369500f, -0.46311298f},
 {0.33419296f, 0.06662642f, 0.19413079f, -0.06514337f, -0.53462338f, -0.16735171f, -0.32210675f, 0.56712162f, 0.34228301f, -0.37686452f},
 {-0.02479302f, -0.00603561f, -0.01913232f, 0.03829164f, 0.04324539f, -0.29667932f, -0.02583672f, -0.05455698f, 0.28262448f, 0.07094810f},
 {-0.30441394f, -0.52149594f, -0.14455722f, 0.67644948f, -0.04815495f, 0.11299240f, 0.16443188f, -0.23377721f, -0.03197334f, -0.20897603f},
 {-0.01815734f, 0.02348003f, 0.26043797f, 0.15017694f, -0.04247059f, 0.04726734f, -0.04252402f, -0.42427054f, -0.06301806f, 0.01172385f},
 {0.07136851f, 0.22358373f, -0.34295094f, -0.23556769f, -0.06699125f, -0.09734048f, 0.26829809f, -0.16164735f, -0.70589554f, 0.56646854f},
 {-0.19402610f, 0.24852887f, -0.53435713f, -0.11932379f, 0.09377111f, 0.20506240f, 0.21517038f, 0.52605331f, -0.25948447f, -0.22691745f},
 {0.19453850f, 0.00071139f, 0.10223180f, -0.33892784f, 0.14863788f, -0.16798557f, -0.32502252f, 0.72167712f, -0.44064561f, -0.19667223f},
 {0.29783115f, 0.55304253f, -0.16709097f, -0.47125518f, -0.21707468f, -0.18701956f, -0.04444460f, -0.19468495f, 0.23269361f, -0.32632694f},
 {-0.14776526f, 0.18589930f, 0.65422082f, -0.13933669f, 0.13583435f, -0.37253594f, -0.01944093f, -0.17505723f, 0.24801891f, -0.45479757f},
 {-0.19696902f, 0.52678353f, -0.24165282f, -0.12877387f, -0.18875751f, -0.56001568f, 0.16199856f, -0.51993483f, 0.22789821f, 0.42583355f},
 {-0.21299930f, -0.39611548f, -0.31701782f, 0.34130365f, -0.04467888f, 0.49160713f, 0.03562486f, 0.00594698f, 0.12210849f, -0.19719954f},
 {-0.05768375f, -0.39431334f, 0.34163755f, 0.24694811f, 0.04495266f, 0.29766732f, 0.27578208f, -0.35776302f, -0.38396326f, -0.04149309f},
 {-0.62358201f, 0.27923629f, -0.17993779f, 0.15150748f, 0.06331401f, -0.22594889f, -0.14695677f, 0.01547835f, -0.35859272f, 0.51623869f},
 {-0.77961475f, 0.10870587f, -0.25611678f, 0.06700736f, 0.08730768f, 0.10008938f, 0.22122386f, -0.03070383f, 0.48491332f, 0.19139263f},
 {0.09664219f, -0.04761104f, 0.10871943f, -0.32869458f, 0.24228668f, 0.16721734f, -0.20321952f, 0.80627286f, -0.49400178f, -0.30773622f},
 {0.07578273f, 0.18470828f, -0.49538720f, 0.07543860f, 0.13141760f, -0.14651677f, -0.21402618f, -0.19844434f, 0.58432418f, -0.12334101f},
 {0.05708016f, 0.56768161f, 0.17134243f, -0.19768068f, -0.23762797f, -0.09584252f, -0.21691149f, -0.26277858f, 0.32400051f, -0.29652104f},
 {0.37791559f, 0.51233625f, -0.24706040f, -0.46284389f, -0.51565433f, -0.48208982f, 0.07921722f, -0.37498513f, 0.41643992f, 0.30960929f},
 {-0.37514403f, -0.57334459f, -0.28481656f, 0.58026445f, -0.38758510f, 0.54560041f, -0.14919890f, -0.19742317f, 0.63102454f, -0.04065788f},
 {-0.37541813f, -0.02101370f, 0.23392949f, -0.04314115f, -0.08993878f, 0.07608628f, 0.53669298f, -0.47551829f, 0.07069310f, -0.16708617f},
 {-0.28284478f, -0.10626049f, -0.02497025f, 0.13589439f, 0.16652477f, -0.44052064f, -0.03446061f, 0.25524294f, -0.21111526f, 0.17544712f},
 {-0.49787596f, 0.39679092f, -0.47671738f, -0.26005101f, -0.32575706f, -0.13872002f, 0.69982117f, -0.58014530f, 0.65505230f, 0.17840588f},
 {0.13158555f, -0.06982798f, -0.39508489f, -0.01856798f, 0.19317921f, 0.22045375f, 0.05645890f, 0.20307954f, 0.10767523f, -0.53255582f},
 {-0.03139054f, -0.17607085f, -0.20089029f, -0.04597553f, 0.40926287f, 0.28868547f, -0.61075038f, 0.57191730f, -0.19646467f, 0.18300651f},
 {0.41593006f, -0.16032399f, 0.34036073f, 0.08633240f, 0.00736012f, -0.19301538f, -0.28058362f, 0.34758192f, -0.15843581f, -0.50270808f},
 {0.18354008f, 0.29173952f, 0.09135920f, -0.19065282f, -0.22964059f, 0.02551039f, -0.30367208f, 0.04953528f, 0.08280221f, 0.05914172f},
 {0.07044086f, -0.23546702f, -0.02418389f, 0.10322846f, 0.09159309f, -0.06916094f, -0.05061375f, -0.24048598f, 0.31976810f, 0.15488091f},
 {-0.18698364f, 0.68926835f, -0.24733087f, 0.06339870f, -0.05227246f, -0.34471667f, 0.26119539f, -1.33267021f, 0.49783117f, 0.61488068f},
 {0.24748474f, -0.04980692f, -0.08261443f, 0.31715074f, -0.13823956f, -0.07192634f, 0.17149210f, -0.52168310f, 0.16027120f, -0.46539992f},
 {0.04884329f, 0.16777755f, -0.19894096f, -0.05440308f, 0.48833236f, -0.11824866f, 0.00541724f, 0.31983888f, -0.37073356f, 0.17229371f},
 {-0.31755984f, 0.67992258f, -0.14851841f, -0.27108547f, -0.10112864f, -0.23139462f, 0.07522687f, -0.29141694f, 0.19117922f, 0.10636897f},
 {-0.03777767f, -0.22783442f, 0.11964606f, 0.15668713f, 0.89622724f, -0.17632957f, -0.74460280f, 1.16728866f, -0.74457949f, -0.28324440f},
 {0.20694555f, -0.39139888f, 0.20177664f, -0.04007218f, -0.17086910f, 0.15461811f, -0.11475932f, 0.07635461f, -0.32141605f, -0.05624095f},
 {-0.08212397f, -0.46911442f, 0.28505325f, -0.16455027f, 0.32524899f, 0.19389392f, -0.48842490f, 0.18355624f, 0.14534187f, 0.21605095f},
 {-0.37526485f, -0.41820017f, 0.13602683f, 0.38992256f, -0.31049550f, 0.16567041f, 0.07352417f, -0.36836487f, 0.63119560f, -0.19816764f},
 {-0.51100016f, 0.17589964f, -0.22873136f, 0.19049899f, -0.50625569f, 0.16459878f, 0.32161707f, -0.74456275f, 0.47185501f, 0.48224238f},
 {-0.66360104f, 0.63140309f, -0.10646693f, 0.11139176f, -0.51358306f, -0.13109025f, 0.22208294f, -0.44327036f, -0.42635939f, 0.25544512f},
 {0.35463578f, -0.60385978f, -0.54161984f, -0.11343355f, 0.49099833f, 0.33935395f, -0.76138312f, 0.62836874f, 0.08179948f, -0.39032504f},
 {-0.44808474f, 0.17863087f, -0.33316177f, 0.17173614f, 0.02141372f, -0.11299057f, 0.10667564f, 0.14475760f, -0.24467798f, 0.14375523f},
 {0.26716447f, -0.27464387f, -0.31079900f, -0.07611174f, 0.06853474f, 0.28168800f, -0.38850772f, -0.15640950f, 0.48679405f, 0.00217260f},
 {0.43724778f, 0.50297302f, 0.41739467f, 0.10314747f, -0.50770605f, 0.02048979f, -0.19604053f, -0.52656901f, -0.21076879f, 0.14212659f},
 {0.08286602f, 0.13629444f, 0.10517696f, -0.22995652f, -0.17767350f, -0.08981404f, -0.46924236f, 0.11650255f, 0.31080994f, -0.04818551f},
 {-0.09545588f, 0.13210411f, -0.24231602f, 0.13871264f, -0.31640375f, 0.26345530f, 0.26675364f, -0.56115478f, 0.99868256f, -0.37884137f},
 {0.51915866f, -0.51850975f, 0.29699585f, 0.28973123f, -0.02594776f, 0.35160789f, 0.23578379f, -0.24060866f, -0.63161528f, -0.33463812f},
 {-0.06691916f, 0.71418029f, -0.48063099f, -0.17343850f, -0.36244330f, -0.10895596f, 0.03705905f, -0.91210771f, 0.00190099f, 0.53390270f},
 {0.36016092f, -0.07897295f, 0.21023628f, -0.41424894f, 0.00040192f, -0.04182179f, -0.53111953f, 0.61188215f, -0.80247456f, 0.26483890f},
 {0.04598047f, 0.20197544f, -0.36043459f, 0.06385754f, -0.11692751f, -0.09449816f, -0.03016273f, 0.38404924f, -0.43122756f, -0.07525760f},
 {-0.17462742f, -0.06972547f, -0.30190581f, -0.24019387f, -0.06349231f, 0.01573604f, 0.02096475f, 0.06987619f, 0.34523022f, 0.10315435f},
 {0.53308886f, -0.00071786f, 0.43822426f, -0.24984144f, -0.09509016f, -0.28491074f, -0.27890137f, -0.12414952f, -0.09525969f, -0.23764095f},
 {0.26562464f, 0.40440252f, -0.37499946f, -0.26645061f, -0.11655976f, -0.01877699f, -0.16724311f, 0.22138807f, 0.05330075f, 0.11944965f},
 {-0.14561856f, 0.04251023f, -0.07025713f, 0.17786923f, -0.26837409f, 0.34093744f, -0.21925166f, -0.81939769f, 1.00909674f, -0.30050325f},
 {0.20369458f, -1.38657928f, 0.26769319f, 0.03314786f, 0.17396003f, 0.33324397f, 0.36649370f, 0.32313687f, -0.39894056f, -0.17552754f},
 {-0.38770014f, 0.75133091f, -0.32306129f, -0.11501987f, -0.39587992f, -0.31777272f, 0.28877172f, -0.35339648f, -0.22604688f, 0.35129815f},
 {0.35398656f, 0.14231953f, 0.13480401f, -0.31144127f, 0.57366681f, 0.23322602f, -0.46994990f, 0.22363697f, -1.32944047f, 0.14722240f},
 {-0.14927502f, 0.21448466f, 0.06165261f, 0.15228069f, 0.43467405f, -0.06440434f, -0.27003995f, 0.29863405f, -0.66349900f, -0.28166971f},
 {0.27261838f, 0.07958729f, -0.19648390f, 0.17995611f, -0.11699738f, 0.16790029f, -0.03262011f, -0.55699247f, 0.27955490f, -0.19056024f},
 {0.62711751f, 0.42113256f, -0.54695296f, -0.14184336f, -0.45027325f, -0.44870767f, 0.01449487f, -0.05715543f, 0.73770076f, 0.07318126f},
 {-0.15932243f, -0.00888855f, -0.10295217f, -0.24765897f, -0.11813012f, -0.17523517f, 0.09436831f, 0.43345147f, 0.26992223f, 0.00229079f},
 {0.05101523f, 0.12914690f, -0.31602988f, 0.01012048f, -0.55020487f, 0.38070780f, 0.53230757f, -0.45059511f, 0.55773324f, -0.28596869f},
 {0.16536576f, -0.83000553f, 0.19095041f, 0.15699606f, -0.22378479f, 0.03860431f, 0.27130154f, -0.29265222f, 0.10736980f, 0.25597122f},
 {0.19990006f, 0.44573262f, -0.34865895f, -0.54205769f, -0.28635159f, 0.04865253f, 0.07544966f, -0.47279909f, -0.05012386f, 0.28744903f},
 {0.03213321f, 0.42020729f, 0.06605849f, -0.47397998f, 0.84434086f, 0.04886528f, -0.60604393f, 0.04388099f, -1.18096399f, 0.31532133f},
 {0.35698399f, -0.02653603f, 0.19225185f, -0.29736134f, 0.32471114f, -0.32513458f, -0.02889204f, 0.49933758f, -0.92022675f, 0.01237249f},
 {0.19069576f, 0.34529364f, 0.09182357f, 0.06094487f, 0.02427448f, 0.07427005f, -0.34886330f, -0.52399558f, 0.41170451f, -0.54553044f},
 {0.28015330f, 0.44757909f, -0.37057209f, -0.12521197f, -0.82987815f, -0.06398104f, -0.05455179f, -0.04955482f, 0.48995483f, 0.68692899f},
 {-0.06436480f, 0.28034285f, -0.05936722f, -0.40256065f, -0.58636445f, -0.00310420f, -0.09023947f, 0.20410295f, 0.31099686f, 0.24193858f},
 {-0.33002093f, -0.38424626f, -0.11298562f, 0.55993742f, -0.24995317f, 0.73436040f, -0.14204091f, -0.36101976f, 0.26796141f, -0.31993458f},
 {0.33418733f, -0.67127270f, -0.00893017f, 0.28799078f, -0.37557563f, 0.19425312f, 0.35144550f, -0.26604831f, 0.26599440f, -0.16053806f},
 {0.00570378f, 0.43843317f, -0.46160954f, -0.12594137f, -0.28905499f, -0.17803326f, -0.03960718f, -0.55068362f, 0.09851812f, 0.50360388f},
 {-0.26358747f, 0.70136362f, -0.14225923f, -0.16770826f, 0.27706197f, 0.08961180f, -0.44522798f, 0.19560137f, -0.51840442f, 0.22784115f},
 {0.18457398f, -0.34102958f, 0.33939388f, -0.34297699f, 0.17214638f, -0.08057967f, -0.32727113f, 0.53022295f, -0.63268173f, -0.04129643f},
 {0.05582051f, 0.08034483f, -0.23950271f, 0.05802284f, -0.07949585f, 0.21731840f, -0.16451046f, -0.26710081f, -0.32909137f, 0.32892957f},
 {0.04012952f, 0.88904071f, -0.22794484f, 0.19988517f, -0.38236269f, -0.22804272f, -0.00323708f, -0.78925985f, 0.47656426f, 0.23946024f},
 {0.17130299f, 0.26074281f, -0.33031729f, 0.21272276f, -0.26711562f, -0.28256893f, 0.11978693f, 0.08094974f, 0.09723397f, -0.28973094f},
 {0.17702080f, -0.50875413f, -0.05100830f, 0.30789965f, -0.24110609f, 0.25660771f, 0.13188934f, -0.45147046f, 0.94915229f, -0.70566773f},
 {0.15839119f, -0.19432417f, -0.13729811f, 0.08278967f, -0.22577198f, 0.04986753f, 0.30098647f, -0.14186922f, 0.19577268f, -0.18524276f},
 {-0.09077273f, 0.53860575f, 0.37823179f, -0.17772363f, -0.45337072f, -0.10961093f, -0.37891170f, -0.30321589f, -0.27818871f, 0.59425908f},
 {-0.40653795f, 0.63215935f, -1.07018995f, 0.15803768f, 0.09924983f, 0.17404869f, -0.30327275f, 0.26028469f, 0.37334651f, 0.03807290f},
 {0.46103278f, -0.13623646f, 0.01742154f, -0.20232655f, 0.11836182f, 0.11538605f, -0.38637981f, 0.68338561f, -0.51982087f, -0.53980738f},
 {0.05613501f, -0.39377478f, -0.13854374f, -0.16124323f, 0.39885518f, -0.14895132f, 0.10799203f, -0.27179599f, 0.62810224f, -0.25444761f},
 {0.14598738f, 0.54513252f, 0.38488823f, -0.21980688f, -0.33021677f, -0.18540590f, -0.05849939f, -0.47351035f, 0.44041404f, -0.16377641f},
 {-0.08984863f, 0.16029605f, -0.18137147f, -0.07683630f, -0.07361714f, -0.25215444f, -0.37530288f, 0.28034207f, 0.41577530f, 0.14741015f},
 {0.28101054f, -0.28494045f, -0.49776030f, 0.60257572f, -0.55912536f, 0.64069843f, 0.33454600f, -1.16271484f, 0.97209114f, -0.68348151f},
 {-0.35073629f, 0.03754029f, -0.26588497f, 0.29548436f, -0.33081487f, 0.51155245f, 0.58167088f, -0.77338666f, -0.02981835f, -0.14401099f},
 {-0.13735327f, -0.34018484f, 0.24839742f, 0.10939335f, 0.34732243f, -0.38886207f, 0.24527751f, 0.14807917f, -0.33692020f, -0.12269790f},
 {-1.08244717f, 0.76313698f, -0.47397614f, 0.04408457f, 0.19869788f, -0.56444150f, 0.07722662f, 0.30478451f, 0.14125748f, 0.02401304f},
 {0.14690068f, -0.67582196f, 0.28339493f, 0.21064593f, -0.09686583f, 0.35289514f, -0.26490930f, -0.17824543f, 0.54020613f, -0.29127958f},
 {-0.32083380f, 0.09654376f, -0.24545628f, 0.00963073f, 0.53422648f, -0.03642914f, -0.47414985f, 0.41626555f, -0.26128086f, -0.01185274f},
 {-0.37566546f, 0.01027917f, 0.32286033f, 0.44004905f, -0.39518267f, 0.12171756f, -0.09023162f, 0.24283740f, 0.02410172f, -0.47882992f},
 {0.03268732f, 0.02115696f, -0.09122432f, -0.24921574f, 0.12046347f, -0.09911089f, -0.24465172f, 0.12632462f, 0.10177512f, 0.07567412f},
 {0.24618450f, -0.32923532f, -0.27484363f, 0.23742178f, -0.16705874f, 0.22913505f, -0.11793912f, -0.04941864f, 0.18505710f, -0.10416703f},
 {-0.46559349f, 0.72400600f, -0.22944948f, 0.13399014f, -0.66269726f, -0.06929557f, 0.59438860f, -1.10403979f, 0.47963077f, 0.41728178f},
 {0.42753866f, -0.19123147f, 0.30570489f, 0.34641796f, -0.08049043f, -0.47223017f, 0.61509341f, -0.20479766f, -0.49226993f, -0.62765384f},
 {-0.00457219f, -0.31048992f, 0.16713396f, -0.24020386f, 0.31709245f, -0.25112340f, 0.11030963f, 0.36572790f, 0.17697693f, -0.32608074f},
 {-0.27645683f, 0.98906088f, -0.88800120f, -0.15849066f, -0.53547722f, -0.20802832f, -0.15782775f, 0.05410364f, 0.04398741f, 0.46976465f},
 {0.47954342f, -0.63455039f, 0.21123120f, -0.14428663f, 0.43351653f, -0.03262966f, 0.28588033f, 0.34340543f, -0.91091907f, -0.16612540f},
 {0.08135210f, 0.55488765f, -0.44366372f, 0.00530868f, 0.07115924f, 0.18697509f, -0.57539213f, 0.49210182f, -0.13321596f, 0.24921384f},
 {-0.14205572f, -0.46749645f, 0.43534875f, 0.36568424f, 0.40356651f, -0.01256429f, 0.34529361f, 0.24816403f, -0.79239047f, -0.74079287f},
 {-0.96871358f, 0.43092602f, -0.24088623f, 0.55508453f, -0.49883315f, 0.29770562f, -0.60655361f, -0.49383730f, 0.02104468f, 0.27180916f},
 {0.06357110f, -0.68763059f, 0.25377694f, 0.00988061f, -0.02903204f, -0.18327047f, 0.17825702f, -0.20033865f, 0.29551223f, 0.00511069f},
 {-0.26284817f, 0.51823896f, -0.12018234f, -0.10066058f, -0.54110390f, -0.02180646f, 0.03397694f, -0.35654861f, -0.41449079f, 0.49293858f},
 {-0.30264294f, -0.34628856f, 0.93701267f, 0.16948585f, 0.16420062f, -0.16583538f, 0.09991590f, -0.09030025f, -0.02155251f, -0.79862273f},
 {0.21959040f, 0.39961398f, -0.51271290f, -0.17377158f, -0.08997595f, -0.39970994f, 0.07568919f, 0.14307205f, -0.42554218f, 0.35319009f},
 {0.07818943f, -0.03078914f, -0.15280649f, 0.22890957f, -0.03704372f, 0.06412565f, 0.05876391f, 0.07955266f, -0.41281152f, 0.13334508f},
 {0.27232516f, 0.80685019f, -0.58965540f, -0.16862686f, -1.03328121f, 0.16366887f, -0.56227148f, 0.04475755f, -0.25151253f, 1.43677533f},
 {-0.09651836f, -0.26130494f, 0.17580932f, -0.22557996f, -0.07206750f, -0.02891999f, -0.39087451f, -0.17268550f, 0.44818437f, 0.62141895f},
 {-0.06692669f, 0.24263638f, 0.04855414f, 0.29871148f, -0.73617315f, 0.26884383f, -0.68503112f, -0.08783349f, 0.57483351f, -0.02348797f},
 {0.14631556f, -0.54853308f, 0.45990822f, 0.27549633f, 0.21571113f, -0.00114634f, 0.23470171f, -0.36625516f, -0.37742341f, -0.50326991f},
 {-0.12668790f, 0.22964966f, -0.30417731f, -0.09215150f, -0.67849588f, -0.16325124f, 0.20056169f, -0.74547333f, 0.20193811f, 0.56146359f},
 {-0.47205186f, -0.92954540f, 0.98488796f, 0.06218278f, 0.27073181f, -0.00391733f, 0.31871587f, 0.07957918f, -0.25914314f, -0.38561895f},
 {0.17836259f, 0.38763347f, 0.01008142f, 0.02935180f, 0.06372110f, -0.03258437f, -0.04230976f, 0.28005400f, -0.80996668f, -0.25165054f},
 {-0.11235505f, 0.24448933f, -0.23178229f, 0.16798934f, 0.10925454f, 0.27735835f, -0.13872842f, -0.33111477f, 0.14405805f, -0.02846937f},
 {1.05450046f, 0.38914791f, -0.51963782f, -0.08898695f, -0.54235232f, -0.30072197f, -0.36742193f, 0.11804941f, -0.37273893f, 1.18652892f},
 {0.15266491f, 0.21181369f, 0.05568158f, -0.13315059f, -0.00564564f, -0.27200186f, -0.26857874f, 0.25179014f, 0.05705498f, 0.15152821f},
 {-0.62265223f, -0.07487128f, 0.29682517f, 0.06297614f, -0.53334546f, 0.17686594f, -0.43413338f, -0.35266623f, 1.19334376f, 0.27470136f},
 {-0.10354579f, -1.07029688f, 0.12666050f, 0.23725079f, 0.07476430f, 0.48661357f, -0.02725811f, 0.09059341f, -0.19751930f, 0.06020043f},
 {-0.34672561f, 1.09371996f, -0.37583038f, -0.12977767f, -0.56198627f, -0.76488513f, -0.24790055f, -0.52001268f, 0.42977723f, 0.65721458f},
 {0.41383234f, -0.79252952f, 1.24312782f, -0.31534702f, 0.40092242f, -0.43174469f, -0.05276217f, 0.31149250f, -0.29200357f, -0.63623536f},
 {0.76127762f, -0.03510843f, -0.04320694f, -0.01399210f, -0.04603605f, -0.20722038f, -0.10829774f, 0.23813310f, -0.68446058f, 0.02063236f},
 {-0.05799978f, 0.11710766f, -0.24265561f, 0.18813513f, 0.22473796f, 0.14250389f, -0.11082064f, -0.47221056f, 0.10742487f, 0.04402681f},
 {0.29979283f, 0.88310540f, -1.06518316f, -0.24791457f, -0.48040846f, -0.36807492f, -0.43136430f, -0.40439731f, 0.43331668f, 1.20090425f},
 {-0.22257347f, -0.00533783f, 0.07143462f, 0.30295023f, -0.11507542f, -0.40753630f, 0.17241403f, -0.28638434f, 0.12752154f, 0.22192633f},
 {-0.34520090f, -0.14471176f, 0.22356792f, 0.01081876f, -0.65420353f, 0.26575878f, -0.34152064f, -0.23158354f, 1.05256915f, 0.55417186f},
 {-0.21875857f, -0.28857917f, 0.31011158f, -0.17158091f, 0.08143447f, -0.05398230f, 0.03465405f, 0.45933220f, -0.11183046f, -0.51680273f},
 {-0.20414090f, 0.27444777f, -0.26039702f, -0.28067616f, 0.02733218f, 0.13544005f, 0.04094139f, -0.67994022f, 0.03799786f, 0.44356710f},
 {0.22623572f, -0.50878829f, 0.78194237f, -0.43494403f, 0.31709373f, -0.12234136f, 0.11302269f, -0.00396415f, -0.34321782f, -0.14869040f},
 {0.27168283f, 0.15858701f, 0.07430569f, -0.13266072f, -0.20657443f, -0.24026200f, -0.44439486f, 0.55568534f, -1.03580213f, 0.46082100f},
 {-0.30837595f, 0.10675109f, -0.28732494f, 0.39337060f, -0.01878061f, 0.11405240f, 0.14687969f, -0.46211609f, -0.09581250f, 0.21640405f},
 {0.40153137f, 1.26902294f, -1.06414878f, -0.09659988f, -0.83983386f, -0.20808744f, -0.32958210f, -0.36872125f, 0.17129530f, 0.94547117f},
 {-0.08969036f, 0.48420277f, -0.11594354f, -0.26132658f, -0.34155822f, 0.10472123f, -0.31710967f, 0.03521011f, 0.20921619f, 0.11191062f},
 {0.20240571f, -0.31314555f, 0.13402002f, 0.08232030f, -0.71411496f, 0.40793347f, -0.60266197f, -0.47760192f, 1.61122501f, 0.21691850f},
 {0.04351961f, -0.30241224f, 0.05236211f, -0.03878925f, 0.08386540f, 0.33923844f, 0.60216856f, -0.21043915f, -0.48093006f, -0.24566281f},
 {-0.46317077f, 0.18168101f, 0.20502298f, -0.01309913f, -0.16109636f, -0.36613843f, -0.04548818f, -0.09588452f, -0.34469464f, 0.78998590f},
 {0.15540899f, -0.37247750f, 0.99508250f, 0.04885791f, 0.03593232f, -0.04081642f, 0.42105716f, -0.26549530f, -0.24728107f, -0.89286923f},
 {0.40714738f, -0.50217056f, 0.15985470f, -0.01071755f, -0.04950223f, 0.17520478f, -0.31637433f, 0.38995138f, -0.73644519f, 0.06912322f},
 {-0.05435892f, 0.07633862f, 0.08179703f, 0.16752687f, 0.14819340f, 0.09302440f, 0.04956175f, -0.46825504f, 0.11665019f, -0.10623025f},
 {0.03176554f, 1.27304542f, -1.26497602f, 0.35484233f, -0.87161279f, -0.46358553f, -0.33814186f, -0.19738859f, 0.08420256f, 1.38744223f},
 {-0.31323513f, 0.67952377f, 0.00355524f, -0.08223327f, -0.32481247f, -0.29258806f, -0.00731247f, -0.17210867f, 0.55536079f, 0.20208392f},
 {0.10512825f, 0.40354922f, 0.18814518f, 0.03174369f, -1.15812433f, 0.63846338f, -0.62215847f, -0.39969859f, 0.66958266f, -0.03793413f},
 {-0.56287807f, -0.56306142f, -0.19828402f, 0.16780378f, 0.30871922f, 0.15266764f, 0.32991809f, 0.02216101f, 0.06276282f, -0.07475909f},
 {0.43832868f, 0.39838123f, 0.11648104f, 0.05791106f, -0.30744752f, -0.48630029f, -0.32538638f, -0.26789966f, -0.02248910f, 0.08470802f},
 {-0.68399626f, -0.32803950f, 0.15026085f, 0.32952407f, 0.19531704f, -0.15367045f, 0.62717354f, -0.20904842f, 0.29687127f, -0.11837549f},
 {0.13496622f, 0.63876140f, -0.00340052f, -0.59380871f, -0.11287667f, -0.29251602f, -0.41348052f, 0.53651476f, 0.02495363f, 0.21693833f},
 {0.02130417f, -0.35154113f, -0.09828101f, 0.05827972f, 0.06734646f, 0.34303230f, 0.20844321f, -0.23703265f, 0.02381678f, -0.31954041f},
 {0.15796004f, 1.48737466f, -0.69108903f, 0.00469866f, -1.16188884f, -0.15423629f, -0.19517833f, -0.09377693f, -0.13954349f, 1.02508938f},
 {-0.02717496f, -0.01999764f, 0.07063379f, 0.31329477f, -0.13290080f, -0.16761632f, -0.12803023f, -0.21768774f, 0.21481414f, 0.25032750f},
 {0.03083602f, -0.16720891f, -0.24459282f, 0.64543515f, -0.32697856f, 0.44234827f, -0.79647303f, -0.29588601f, 0.91123158f, -0.20923637f},
 {-0.62478578f, -0.29455447f, 0.06454320f, 0.33767143f, -0.16981898f, -0.03666853f, 0.77260721f, 0.02725225f, -0.21635590f, 0.00766158f},
 {0.60605311f, -0.50935000f, 0.06448253f, 0.60579336f, 0.17338613f, -0.13531460f, 0.58184600f, -0.27245548f, -0.63171065f, -0.44953436f},
 {-0.14778350f, -0.43066576f, 0.45119417f, -0.42489588f, 0.31590867f, -0.05442535f, 0.16063370f, -0.16226335f, 0.54201549f, -0.42218760f},
 {0.01760887f, -0.55525041f, 0.24633664f, 0.11779752f, -0.09193119f, -0.12053192f, -0.10868409f, -0.22500899f, 0.62903947f, -0.10879134f},
 {-0.11686888f, 0.34118491f, -0.19362248f, 0.11480366f, -0.14758313f, 0.07040978f, 0.03723522f, -0.09203119f, -0.25148758f, 0.00100734f},
 {0.15654197f, 1.24529946f, -0.56126446f, -0.15719870f, -0.88172358f, 0.05158132f, -0.50559759f, -0.09513225f, -0.02375581f, 0.39733669f},
 {0.00045239f, -0.34756541f, 0.38027316f, 0.28315476f, 0.12722518f, 0.32816339f, -0.25902358f, 0.22210088f, -0.30287626f, -0.31531373f},
 {-0.07987288f, -0.01035859f, 0.02438351f, 0.10082205f, 0.12820758f, -0.07678504f, -0.03536654f, -0.05432974f, 0.15543485f, 0.39855173f},
 {-0.50341535f, 0.00653265f, 0.05372175f, -0.07717442f, 0.15664232f, -0.09922127f, 0.24129266f, 0.08107812f, -0.04961002f, 0.09828954f}};

/* Dense biases [output_size] */
static const float dense_biases[DENSE_OUTPUT_SIZE] = {-1.01632106f, -0.76226205f, 1.23926663f, -0.51753688f, 
 1.23905253f, -0.85823780f, 0.24072637f, -0.28973356f, 
 0.64384359f, -0.23141161f};

/* Function prototype for CIFAR-10 classifier */
uint32_t cifar10_classify(uint8_t image[32][32][3], volatile float *confidence);

#endif /* CNN_PARAMS_H */